{"learner":{"attributes":{"scikit_learn":"{\"_estimator_type\": \"classifier\"}"},"feature_names":[],"feature_types":[],"gradient_booster":{"model":{"cats":{"enc":[],"feature_segments":[],"sorted_idx":[]},"gbtree_model_param":{"num_parallel_tree":"1","num_trees":"300"},"iteration_indptr":[0,3,6,9,12,15,18,21,24,27,30,33,36,39,42,45,48,51,54,57,60,63,66,69,72,75,78,81,84,87,90,93,96,99,102,105,108,111,114,117,120,123,126,129,132,135,138,141,144,147,150,153,156,159,162,165,168,171,174,177,180,183,186,189,192,195,198,201,204,207,210,213,216,219,222,225,228,231,234,237,240,243,246,249,252,255,258,261,264,267,270,273,276,279,282,285,288,291,294,297,300],"tree_info":[0,1,2,0,1,2,0,1,2,0,1,2,0,1,2,0,1,2,0,1,2,0,1,2,0,1,2,0,1,2,0,1,2,0,1,2,0,1,2,0,1,2,0,1,2,0,1,2,0,1,2,0,1,2,0,1,2,0,1,2,0,1,2,0,1,2,0,1,2,0,1,2,0,1,2,0,1,2,0,1,2,0,1,2,0,1,2,0,1,2,0,1,2,0,1,2,0,1,2,0,1,2,0,1,2,0,1,2,0,1,2,0,1,2,0,1,2,0,1,2,0,1,2,0,1,2,0,1,2,0,1,2,0,1,2,0,1,2,0,1,2,0,1,2,0,1,2,0,1,2,0,1,2,0,1,2,0,1,2,0,1,2,0,1,2,0,1,2,0,1,2,0,1,2,0,1,2,0,1,2,0,1,2,0,1,2,0,1,2,0,1,2,0,1,2,0,1,2,0,1,2,0,1,2,0,1,2,0,1,2,0,1,2,0,1,2,0,1,2,0,1,2,0,1,2,0,1,2,0,1,2,0,1,2,0,1,2,0,1,2,0,1,2,0,1,2,0,1,2,0,1,2,0,1,2,0,1,2,0,1,2,0,1,2,0,1,2,0,1,2,0,1,2,0,1,2,0,1,2,0,1,2,0,1,2,0,1,2,0,1,2,0,1,2,0,1,2,0,1,2],"trees":[{"base_weights":[5.482483E-6,-4.7410792E-1,1.5675868E-1,4.815143E-2,-6.423121E-2,3.6721843E-1,-4.0744615E-1,5.084274E-2,1.558874E-1,-4.8965838E-2,3.9365903E-2,-1.6234426E-1,5.7322282E-2],"categories":[],"categories_nodes":[],"categories_segments":[],"categories_sizes":[],"default_left":[0,0,0,0,0,0,0,0,0,0,0,0,0],"id":0,"left_children":[1,3,5,-1,-1,7,9,-1,11,-1,-1,-1,-1],"loss_changes":[9.091394E0,5.1950607E0,1.10660925E1,0E0,0E0,1.9345751E0,1.8689475E0,0E0,2.2073647E1,0E0,0E0,0E0,0E0],"parents":[2147483647,0,0,1,1,2,2,5,5,6,6,8,8],"right_children":[2,4,6,-1,-1,8,10,-1,12,-1,-1,-1,-1],"split_conditions":[3E0,2E0,8E0,4.815143E-2,-6.423121E-2,5E0,9E0,5.084274E-2,6E0,-4.8965838E-2,3.9365903E-2,-1.6234426E-1,5.7322282E-2],"split_indices":[0,0,0,0,0,0,0,0,0,0,0,0,0],"split_type":[0,0,0,0,0,0,0,0,0,0,0,0,0],"sum_hessian":[1.20329666E2,2.9395603E1,9.093406E1,4.1208787E0,2.5274723E1,6.648351E1,2.4450548E1,3.9010986E1,2.7472527E1,2.2527472E1,1.9230769E0,4.6703296E0,2.2802197E1],"tree_param":{"num_deleted":"0","num_feature":"2","num_nodes":"13","size_leaf_vector":"1"}},{"base_weights":[-3.9866463E-6,4.4697362E-1,-1.4967537E-1,-3.9944865E-2,6.0039986E-2,-4.1435782E-2,5.5567645E-2,2.3735178E-1,-2.4310312E-1,-5.170999E-2,2.8340693E-3],"categories":[],"categories_nodes":[],"categories_segments":[],"categories_sizes":[],"default_left":[0,0,0,0,0,0,0,0,0,0,0],"id":1,"left_children":[1,3,5,-1,-1,-1,7,-1,9,-1,-1],"loss_changes":[5.21455E0,2.7790403E0,3.195166E0,0E0,0E0,0E0,2.3956867E1,0E0,2.307139E0,0E0,0E0],"parents":[2147483647,0,0,1,1,2,2,6,6,8,8],"right_children":[2,4,6,-1,-1,-1,8,-1,10,-1,-1],"split_conditions":[3E0,2E0,5E0,-3.9944865E-2,6.0039986E-2,-4.1435782E-2,6E0,2.3735178E-1,8E0,-5.170999E-2,2.8340693E-3],"split_indices":[0,0,0,0,0,0,0,0,0,0,0],"split_type":[0,0,0,0,0,0,0,0,0,0,0],"sum_hessian":[7.59457E1,1.8552946E1,5.7392757E1,2.6008801E0,1.5952065E1,2.4621666E1,3.277109E1,2.9476643E0,2.9823425E1,1.4391537E1,1.543189E1],"tree_param":{"num_deleted":"0","num_feature":"2","num_nodes":"11","size_leaf_vector":"1"}},{"base_weights":[-6.1950423E-6,-2.1751557E-1,8.015018E-2,3.8701013E-1,-4.8856113E-2,-3.525678E-2,5.258031E-2],"categories":[],"categories_nodes":[],"categories_segments":[],"categories_sizes":[],"default_left":[0,0,0,0,0,0,0],"id":2,"left_children":[1,3,-1,5,-1,-1,-1],"loss_changes":[1.00924635E1,7.650035E0,0E0,1.6895616E0,0E0,0E0,0E0],"parents":[2147483647,0,0,1,1,3,3],"right_children":[2,4,-1,6,-1,-1,-1],"split_conditions":[8E0,3E0,8.015018E-2,2E0,-4.8856113E-2,-3.525678E-2,5.258031E-2],"split_indices":[0,0,0,0,0,0,0],"split_type":[0,0,0,0,0,0,0],"sum_hessian":[5.5891018E1,4.453417E1,1.1356851E1,1.3653742E1,3.0880426E1,1.914076E0,1.1739666E1],"tree_param":{"num_deleted":"0","num_feature":"2","num_nodes":"7","size_leaf_vector":"1"}},{"base_weights":[1.3130682E-3,-4.028232E-1,1.4597915E-1,4.6942767E-2,-5.3888112E-2,3.5037816E-1,-3.512008E-1,4.9381804E-2,1.439081E-1,-4.2456333E-2,3.9310288E-2,-1.2808739E-1,5.617782E-2],"categories":[],"categories_nodes":[],"categories_segments":[],"categories_sizes":[],"default_left":[0,0,0,0,0,0,0,0,0,0,0,0,0],"id":3,"left_children":[1,3,5,-1,-1,7,9,-1,11,-1,-1,-1,-1],"loss_changes":[7.151464E0,4.0796986E0,9.276245E0,0E0,0E0,1.8341188E0,1.6270373E0,0E0,1.7260294E1,0E0,0E0,0E0,0E0],"parents":[2147483647,0,0,1,1,2,2,5,5,6,6,8,8],"right_children":[2,4,6,-1,-1,8,10,-1,12,-1,-1,-1,-1],"split_conditions":[3E0,2E0,8E0,4.6942767E-2,-5.3888112E-2,5E0,9E0,4.9381804E-2,6E0,-4.2456333E-2,3.9310288E-2,-1.2808739E-1,5.617782E-2],"split_indices":[0,0,0,0,0,0,0,0,0,0,0,0,0],"split_type":[0,0,0,0,0,0,0,0,0,0,0,0,0],"sum_hessian":[1.2031503E2,3.1245033E1,8.907E1,3.885481E0,2.7359552E1,6.3329464E1,2.5740534E1,3.654738E1,2.6782085E1,2.3822086E1,1.9184484E0,5.605198E0,2.1176888E1],"tree_param":{"num_deleted":"0","num_feature":"2","num_nodes":"13","size_leaf_vector":"1"}},{"base_weights":[-1.2278613E-3,3.768556E-1,-1.397594E-1,-3.889639E-2,4.986875E-2,-4.00669E-2,4.7720626E-2,1.7452133E-1,-2.3466317E-1,-5.0946247E-2,1.1260001E-3],"categories":[],"categories_nodes":[],"categories_segments":[],"categories_sizes":[],"default_left":[0,0,0,0,0,0,0,0,0,0,0],"id":4,"left_children":[1,3,5,-1,-1,-1,7,-1,9,-1,-1],"loss_changes":[4.0853767E0,2.1455364E0,2.8111002E0,0E0,0E0,0E0,1.6758099E1,0E0,2.041442E0,0E0,0E0],"parents":[2147483647,0,0,1,1,2,2,6,6,8,8],"right_children":[2,4,6,-1,-1,-1,8,-1,10,-1,-1],"split_conditions":[3E0,2E0,5E0,-3.889639E-2,4.986875E-2,-4.00669E-2,6E0,1.7452133E-1,8E0,-5.0946247E-2,1.1260001E-3],"split_indices":[0,0,0,0,0,0,0,0,0,0,0],"split_type":[0,0,0,0,0,0,0,0,0,0,0],"sum_hessian":[7.599461E1,1.9916817E1,5.6077797E1,2.4326794E0,1.7484137E1,2.2971712E1,3.3106083E1,3.982972E0,2.9123114E1,1.3247957E1,1.5875156E1],"tree_param":{"num_deleted":"0","num_feature":"2","num_nodes":"11","size_leaf_vector":"1"}},{"base_weights":[-1.1368103E-3,-2.0865735E-1,6.786435E-2,3.2693535E-1,-4.8247818E-2,-3.4295037E-2,4.3866694E-2],"categories":[],"categories_nodes":[],"categories_segments":[],"categories_sizes":[],"default_left":[0,0,0,0,0,0,0],"id":5,"left_children":[1,3,-1,5,-1,-1,-1],"loss_changes":[8.177746E0,6.6704493E0,0E0,1.3194885E0,0E0,0E0,0E0],"parents":[2147483647,0,0,1,1,3,3],"right_children":[2,4,-1,6,-1,-1,-1],"split_conditions":[8E0,3E0,6.786435E-2,2E0,-4.8247818E-2,-3.4295037E-2,4.3866694E-2],"split_indices":[0,0,0,0,0,0,0],"split_type":[0,0,0,0,0,0,0],"sum_hessian":[5.596628E1,4.3407936E1,1.2558345E1,1.46190815E1,2.8788855E1,1.7939655E0,1.2825116E1],"tree_param":{"num_deleted":"0","num_feature":"2","num_nodes":"7","size_leaf_vector":"1"}},{"base_weights":[2.3252736E-3,-3.4667778E-1,1.362255E-1,4.579393E-2,-4.5965593E-2,3.3499318E-1,-3.0528054E-1,4.798033E-2,1.335969E-1,-3.7159294E-2,3.917768E-2,-1.0568961E-1,5.513459E-2],"categories":[],"categories_nodes":[],"categories_segments":[],"categories_sizes":[],"default_left":[0,0,0,0,0,0,0,0,0,0,0,0,0],"id":6,"left_children":[1,3,5,-1,-1,7,9,-1,11,-1,-1,-1,-1],"loss_changes":[5.6958737E0,3.2829013E0,7.83156E0,0E0,0E0,1.7210498E0,1.4336312E0,0E0,1.4004949E1,0E0,0E0,0E0,0E0],"parents":[2147483647,0,0,1,1,2,2,5,5,6,6,8,8],"right_children":[2,4,6,-1,-1,8,10,-1,12,-1,-1,-1,-1],"split_conditions":[3E0,2E0,8E0,4.579393E-2,-4.5965593E-2,5E0,9E0,4.798033E-2,6E0,-3.7159294E-2,3.917768E-2,-1.0568961E-1,5.513459E-2],"split_indices":[0,0,0,0,0,0,0,0,0,0,0,0,0],"split_type":[0,0,0,0,0,0,0,0,0,0,0,0,0],"sum_hessian":[1.19874275E2,3.2798317E1,8.707596E1,3.662325E0,2.9135992E1,6.02103E1,2.6865656E1,3.4221565E1,2.5988735E1,2.495824E1,1.9074141E0,6.353286E0,1.963545E1],"tree_param":{"num_deleted":"0","num_feature":"2","num_nodes":"13","size_leaf_vector":"1"}},{"base_weights":[-2.4272227E-3,3.2184386E-1,-1.309383E-1,-3.7869778E-2,4.213603E-2,-3.8688663E-2,4.030629E-2,1.3660586E-1,-2.2631122E-1,-5.021403E-2,-2.1764461E-4],"categories":[],"categories_nodes":[],"categories_segments":[],"categories_sizes":[],"default_left":[0,0,0,0,0,0,0,0,0,0,0],"id":7,"left_children":[1,3,5,-1,-1,-1,7,-1,9,-1,-1],"loss_changes":[3.2450013E0,1.7005177E0,2.459303E0,0E0,0E0,0E0,1.2436819E1,0E0,1.8179562E0,0E0,0E0],"parents":[2147483647,0,0,1,1,2,2,6,6,8,8],"right_children":[2,4,6,-1,-1,-1,8,-1,10,-1,-1],"split_conditions":[3E0,2E0,5E0,-3.7869778E-2,4.213603E-2,-3.8688663E-2,6E0,1.3660586E-1,8E0,-5.021403E-2,-2.1764461E-4],"split_indices":[0,0,0,0,0,0,0,0,0,0,0],"split_type":[0,0,0,0,0,0,0,0,0,0,0],"sum_hessian":[7.585799E1,2.1103436E1,5.475455E1,2.2760313E0,1.8827406E1,2.1444128E1,3.3310425E1,4.886868E0,2.8423557E1,1.2186286E1,1.623727E1],"tree_param":{"num_deleted":"0","num_feature":"2","num_nodes":"11","size_leaf_vector":"1"}},{"base_weights":[-1.6603237E-3,-1.9968766E-1,5.8281273E-2,2.7960905E-1,-4.7635835E-2,-3.334705E-2,3.7194327E-2],"categories":[],"categories_nodes":[],"categories_segments":[],"categories_sizes":[],"default_left":[0,0,0,0,0,0,0],"id":8,"left_children":[1,3,-1,5,-1,-1,-1],"loss_changes":[6.704681E0,5.870041E0,0E0,1.055986E0,0E0,0E0,0E0],"parents":[2147483647,0,0,1,1,3,3],"right_children":[2,4,-1,6,-1,-1,-1],"split_conditions":[8E0,3E0,5.8281273E-2,2E0,-4.7635835E-2,-3.334705E-2,3.7194327E-2],"split_indices":[0,0,0,0,0,0,0],"split_type":[0,0,0,0,0,0,0],"sum_hessian":[5.592247E1,4.226191E1,1.3660558E1,1.5463223E1,2.6798687E1,1.6822019E0,1.3781022E1],"tree_param":{"num_deleted":"0","num_feature":"2","num_nodes":"7","size_leaf_vector":"1"}},{"base_weights":[3.1129238E-3,-3.012315E-1,1.273109E-1,4.4696573E-2,-3.9692223E-2,3.2077795E-1,-2.6712722E-1,4.662497E-2,1.24537185E-1,-3.2767955E-2,3.898425E-2,-8.987369E-2,5.417628E-2],"categories":[],"categories_nodes":[],"categories_segments":[],"categories_sizes":[],"default_left":[0,0,0,0,0,0,0,0,0,0,0,0,0],"id":9,"left_children":[1,3,5,-1,-1,7,9,-1,11,-1,-1,-1,-1],"loss_changes":[4.5787272E0,2.6910853E0,6.649156E0,0E0,0E0,1.6022606E0,1.2754102E0,0E0,1.1640189E1,0E0,0E0,0E0,0E0],"parents":[2147483647,0,0,1,1,2,2,5,5,6,6,8,8],"right_children":[2,4,6,-1,-1,8,10,-1,12,-1,-1,-1,-1],"split_conditions":[3E0,2E0,8E0,4.4696573E-2,-3.9692223E-2,5E0,9E0,4.662497E-2,6E0,-3.2767955E-2,3.898425E-2,-8.987369E-2,5.417628E-2],"split_indices":[0,0,0,0,0,0,0,0,0,0,0,0,0],"split_type":[0,0,0,0,0,0,0,0,0,0,0,0,0],"sum_hessian":[1.1911909E2,3.410938E1,8.5009705E1,3.4514964E0,3.0657883E1,5.716012E1,2.7849586E1,3.20361E1,2.512402E1,2.5958261E1,1.8913245E0,6.9426413E0,1.8181377E1],"tree_param":{"num_deleted":"0","num_feature":"2","num_nodes":"13","size_leaf_vector":"1"}},{"base_weights":[-3.53371E-3,2.7754968E-1,-1.2298282E-1,-3.686325E-2,3.6061607E-2,-3.729715E-1,3.348353E-2,-4.676754E-2,-3.0018035E-2,1.1146182E-1,-2.1806103E-1,-4.950608E-2,-1.2824413E-3],"categories":[],"categories_nodes":[],"categories_segments":[],"categories_sizes":[],"default_left":[0,0,0,0,0,0,0,0,0,0,0,0,0],"id":10,"left_children":[1,3,5,-1,-1,7,9,-1,-1,-1,11,-1,-1],"loss_changes":[2.6047802E0,1.375019E0,2.141256E0,0E0,0E0,4.60577E-3,9.595708E0,0E0,0E0,0E0,1.627292E0,0E0,0E0],"parents":[2147483647,0,0,1,1,2,2,5,5,6,6,10,10],"right_children":[2,4,6,-1,-1,8,10,-1,-1,-1,12,-1,-1],"split_conditions":[3E0,2E0,5E0,-3.686325E-2,3.6061607E-2,4E0,6E0,-4.676754E-2,-3.0018035E-2,1.1146182E-1,8E0,-4.950608E-2,-1.2824413E-3],"split_indices":[0,0,0,0,0,0,0,0,0,0,0,0,0],"split_type":[0,0,0,0,0,0,0,0,0,0,0,0,0],"sum_hessian":[7.556394E1,2.214039E1,5.3423553E1,2.1303523E0,2.0010036E1,2.0032925E1,3.339063E1,6.348462E0,1.3684463E1,5.654892E0,2.7735735E1,1.1203145E1,1.653259E1],"tree_param":{"num_deleted":"0","num_feature":"2","num_nodes":"13","size_leaf_vector":"1"}},{"base_weights":[-1.8200788E-3,-1.9072182E-1,5.0612837E-2,2.4140994E-1,-4.701665E-2,-3.2413352E-2,3.192731E-2],"categories":[],"categories_nodes":[],"categories_segments":[],"categories_sizes":[],"default_left":[0,0,0,0,0,0,0],"id":11,"left_children":[1,3,-1,5,-1,-1,-1],"loss_changes":[5.5464935E0,5.2007527E0,0E0,8.6110556E-1,0E0,0E0,0E0],"parents":[2147483647,0,0,1,1,3,3],"right_children":[2,4,-1,6,-1,-1,-1],"split_conditions":[8E0,3E0,5.0612837E-2,2E0,-4.701665E-2,-3.2413352E-2,3.192731E-2],"split_indices":[0,0,0,0,0,0,0],"split_type":[0,0,0,0,0,0,0],"sum_hessian":[5.5798653E1,4.1128017E1,1.4670637E1,1.620492E1,2.4923096E1,1.578311E0,1.462661E1],"tree_param":{"num_deleted":"0","num_feature":"2","num_nodes":"7","size_leaf_vector":"1"}},{"base_weights":[3.8861667E-3,-2.6366666E-1,1.19281955E-1,4.3643847E-2,-3.459834E-2,3.076885E-1,-2.3497713E-1,4.5322556E-2,1.16468355E-1,-2.9072491E-2,3.8742345E-2,-7.805594E-2,5.3289056E-2],"categories":[],"categories_nodes":[],"categories_segments":[],"categories_sizes":[],"default_left":[0,0,0,0,0,0,0,0,0,0,0,0,0],"id":12,"left_children":[1,3,5,-1,-1,7,9,-1,11,-1,-1,-1,-1],"loss_changes":[3.7106724E0,2.2384126E0,5.6752806E0,0E0,0E0,1.4843626E0,1.1435683E0,0E0,9.835409E0,0E0,0E0,0E0,0E0],"parents":[2147483647,0,0,1,1,2,2,5,5,6,6,8,8],"right_children":[2,4,6,-1,-1,8,10,-1,12,-1,-1,-1,-1],"split_conditions":[3E0,2E0,8E0,4.3643847E-2,-3.459834E-2,5E0,9E0,4.5322556E-2,6E0,-2.9072491E-2,3.8742345E-2,-7.805594E-2,5.3289056E-2],"split_indices":[0,0,0,0,0,0,0,0,0,0,0,0,0],"split_type":[0,0,0,0,0,0,0,0,0,0,0,0,0],"sum_hessian":[1.1816712E2,3.52207E1,8.294642E1,3.252889E0,3.196781E1,5.4234306E1,2.8712118E1,3.001773E1,2.4216576E1,2.6840902E1,1.8712144E0,7.4004965E0,1.6816078E1],"tree_param":{"num_deleted":"0","num_feature":"2","num_nodes":"13","size_leaf_vector":"1"}},{"base_weights":[-4.7784895E-3,2.4116388E-1,-1.16023496E-1,-3.5875563E-2,3.1169793E-2,-3.592617E-1,2.7250703E-2,-4.5976695E-2,-2.8347878E-2,9.35948E-2,-2.0992649E-1,-4.8815977E-2,-2.129267E-3],"categories":[],"categories_nodes":[],"categories_segments":[],"categories_sizes":[],"default_left":[0,0,0,0,0,0,0,0,0,0,0,0,0],"id":13,"left_children":[1,3,5,-1,-1,7,9,-1,-1,-1,11,-1,-1],"loss_changes":[2.112166E0,1.1294878E0,1.8612494E0,0E0,0E0,2.0198822E-2,7.6024866E0,0E0,0E0,0E0,1.4626945E0,0E0,0E0],"parents":[2147483647,0,0,1,1,2,2,5,5,6,6,10,10],"right_children":[2,4,6,-1,-1,8,10,-1,-1,-1,12,-1,-1],"split_conditions":[3E0,2E0,5E0,-3.5875563E-2,3.1169793E-2,4E0,6E0,-4.5976695E-2,-2.8347878E-2,9.35948E-2,8E0,-4.8815977E-2,-2.129267E-3],"split_indices":[0,0,0,0,0,0,0,0,0,0,0,0,0],"split_type":[0,0,0,0,0,0,0,0,0,0,0,0,0],"sum_hessian":[7.517676E1,2.3049864E1,5.2126896E1,1.995036E0,2.1054827E1,1.8763826E1,3.3363068E1,5.888053E0,1.2875773E1,6.295793E0,2.7067276E1,1.02947445E1,1.6772532E1],"tree_param":{"num_deleted":"0","num_feature":"2","num_nodes":"13","size_leaf_vector":"1"}},{"base_weights":[-1.7501758E-3,-1.8182372E-1,4.4349324E-2,2.0998916E-1,-4.6386838E-2,-3.1494614E-2,2.767156E-2],"categories":[],"categories_nodes":[],"categories_segments":[],"categories_sizes":[],"default_left":[0,0,0,0,0,0,0],"id":14,"left_children":[1,3,-1,5,-1,-1,-1],"loss_changes":[4.6202316E0,4.6309457E0,0E0,7.12705E-1,0E0,0E0,0E0],"parents":[2147483647,0,0,1,1,3,3],"right_children":[2,4,-1,6,-1,-1,-1],"split_conditions":[8E0,3E0,4.4349324E-2,2E0,-4.6386838E-2,-3.1494614E-2,2.767156E-2],"split_indices":[0,0,0,0,0,0,0],"split_type":[0,0,0,0,0,0,0],"sum_hessian":[5.561997E1,4.0024254E1,1.55957155E1,1.6859175E1,2.3165077E1,1.4818152E0,1.537736E1],"tree_param":{"num_deleted":"0","num_feature":"2","num_nodes":"7","size_leaf_vector":"1"}},{"base_weights":[4.5294696E-3,-2.3210277E-1,1.1186455E-1,4.2630088E-2,-3.0380739E-2,4.404692E-2,-6.8305396E-2,-6.884151E-2,5.1118676E-2,5.2461047E-2,-2.0757293E-2],"categories":[],"categories_nodes":[],"categories_segments":[],"categories_sizes":[],"default_left":[0,0,0,0,0,0,0,0,0,0,0],"id":15,"left_children":[1,3,5,-1,-1,-1,7,-1,9,-1,-1],"loss_changes":[3.0245917E0,1.8841512E0,4.8786473E0,0E0,0E0,0E0,4.0164127E0,0E0,5.74447E0,0E0,0E0],"parents":[2147483647,0,0,1,1,2,2,6,6,8,8],"right_children":[2,4,6,-1,-1,-1,8,-1,10,-1,-1],"split_conditions":[3E0,2E0,5E0,4.2630088E-2,-3.0380739E-2,4.404692E-2,6E0,-6.884151E-2,8E0,5.2461047E-2,-2.0757293E-2],"split_indices":[0,0,0,0,0,0,0,0,0,0,0],"split_type":[0,0,0,0,0,0,0,0,0,0,0],"sum_hessian":[1.1706113E2,3.6166218E1,8.0894905E1,3.066241E0,3.309998E1,2.8135313E1,5.2759594E1,7.7505245E0,4.5009068E1,1.5539207E1,2.9469862E1],"tree_param":{"num_deleted":"0","num_feature":"2","num_nodes":"11","size_leaf_vector":"1"}},{"base_weights":[-5.8964165E-3,2.1079776E-1,-1.09654635E-1,-3.4905978E-2,2.7153144E-2,-3.4541383E-1,2.1561302E-2,-4.5197397E-2,-2.6666893E-2,8.022424E-2,-2.0192182E-1,-4.813803E-2,-2.802782E-3],"categories":[],"categories_nodes":[],"categories_segments":[],"categories_sizes":[],"default_left":[0,0,0,0,0,0,0,0,0,0,0,0,0],"id":16,"left_children":[1,3,5,-1,-1,7,9,-1,-1,-1,11,-1,-1],"loss_changes":[1.7249436E0,9.397367E-1,1.6111768E0,0E0,0E0,3.550625E-2,6.136879E0,0E0,0E0,0E0,1.3191773E0,0E0,0E0],"parents":[2147483647,0,0,1,1,2,2,5,5,6,6,10,10],"right_children":[2,4,6,-1,-1,8,10,-1,-1,-1,12,-1,-1],"split_conditions":[3E0,2E0,5E0,-3.4905978E-2,2.7153144E-2,4E0,6E0,-4.5197397E-2,-2.6666893E-2,8.022424E-2,8E0,-4.813803E-2,-2.802782E-3],"split_indices":[0,0,0,0,0,0,0,0,0,0,0,0,0],"split_type":[0,0,0,0,0,0,0,0,0,0,0,0,0],"sum_hessian":[7.469133E1,2.385003E1,5.0841297E1,1.8694656E0,2.1980564E1,1.7595171E1,3.3246124E1,5.462892E0,1.2132279E1,6.8227773E0,2.6423347E1,9.4570465E0,1.6966301E1],"tree_param":{"num_deleted":"0","num_feature":"2","num_nodes":"13","size_leaf_vector":"1"}},{"base_weights":[-1.5679387E-3,-1.7306982E-1,3.9146982E-2,1.8375151E-1,-4.5744706E-2,-3.0591646E-2,2.4169212E-2],"categories":[],"categories_nodes":[],"categories_segments":[],"categories_sizes":[],"default_left":[0,0,0,0,0,0,0],"id":17,"left_children":[1,3,-1,5,-1,-1,-1],"loss_changes":[3.8700008E0,4.139371E0,0E0,5.970604E-1,0E0,0E0,0E0],"parents":[2147483647,0,0,1,1,3,3],"right_children":[2,4,-1,6,-1,-1,-1],"split_conditions":[8E0,3E0,3.9146982E-2,2E0,-4.5744706E-2,-3.0591646E-2,2.4169212E-2],"split_indices":[0,0,0,0,0,0,0],"split_type":[0,0,0,0,0,0,0],"sum_hessian":[5.5407578E1,3.8964916E1,1.6442665E1,1.743822E1,2.1526697E1,1.3922445E0,1.6045973E1],"tree_param":{"num_deleted":"0","num_feature":"2","num_nodes":"7","size_leaf_vector":"1"}},{"base_weights":[4.9248957E-3,-2.0523113E-1,1.0477048E-1,4.165065E-2,-2.6834175E-2,4.2790916E-2,-6.261485E-2,-6.1416138E-2,4.8060864E-2,5.1682014E-2,-1.8460615E-2],"categories":[],"categories_nodes":[],"categories_segments":[],"categories_sizes":[],"default_left":[0,0,0,0,0,0,0,0,0,0,0],"id":18,"left_children":[1,3,5,-1,-1,-1,7,-1,9,-1,-1],"loss_changes":[2.4734037E0,1.601776E0,4.3472633E0,0E0,0E0,0E0,3.294858E0,0E0,5.0556726E0,0E0,0E0],"parents":[2147483647,0,0,1,1,2,2,6,6,8,8],"right_children":[2,4,6,-1,-1,-1,8,-1,10,-1,-1],"split_conditions":[3E0,2E0,5E0,4.165065E-2,-2.6834175E-2,4.2790916E-2,6E0,-6.1416138E-2,8E0,5.1682014E-2,-1.8460615E-2],"split_indices":[0,0,0,0,0,0,0,0,0,0,0],"split_type":[0,0,0,0,0,0,0,0,0,0,0],"sum_hessian":[1.1585095E2,3.6973423E1,7.887753E1,2.89118E0,3.4082245E1,2.6384882E1,5.249265E1,8.012682E0,4.447997E1,1.4349146E1,3.0130821E1],"tree_param":{"num_deleted":"0","num_feature":"2","num_nodes":"11","size_leaf_vector":"1"}},{"base_weights":[-6.7811464E-3,9.4956264E-2,-1.9380283E-1,-2.5562642E-2,6.9810815E-2,-4.74672E-2,-3.289073E-2,1.8513091E-1,-3.3142596E-1,-1.8547935E-4,-2.7686564E-2,-3.3954103E-2,2.3803633E-2,-4.4426672E-2,-2.4978032E-2],"categories":[],"categories_nodes":[],"categories_segments":[],"categories_sizes":[],"default_left":[0,0,0,0,0,0,0,0,0,0,0,0,0,0,0],"id":19,"left_children":[1,3,5,7,-1,-1,9,11,13,-1,-1,-1,-1,-1,-1],"loss_changes":[1.4477854E0,3.6034615E0,1.1954768E0,2.7729154E0,0E0,0E0,1.366223E-1,7.90205E-1,5.0447464E-2,0E0,0E0,0E0,0E0,0E0,0E0],"parents":[2147483647,0,0,1,1,2,2,3,3,6,6,7,7,8,8],"right_children":[2,4,6,8,-1,-1,10,12,14,-1,-1,-1,-1,-1,-1],"split_conditions":[6E0,5E0,8E0,3E0,6.9810815E-2,-4.74672E-2,9E0,2E0,4E0,-1.8547935E-4,-2.7686564E-2,-3.3954103E-2,2.3803633E-2,-4.4426672E-2,-2.4978032E-2],"split_indices":[0,0,0,0,0,0,0,0,0,0,0,0,0,0,0],"split_type":[0,0,0,0,0,0,0,0,0,0,0,0,0,0,0],"sum_hessian":[7.41235E1,4.8326675E1,2.5796822E1,4.107657E1,7.250104E0,8.685884E0,1.7110937E1,2.4555958E1,1.6520613E1,1.60738E1,1.0371381E0,1.7530252E0,2.2802933E1,5.0708694E0,1.1449743E1],"tree_param":{"num_deleted":"0","num_feature":"2","num_nodes":"15","size_leaf_vector":"1"}},{"base_weights":[-1.1763161E-3,-1.6450557E-1,3.4835225E-1,1.6157167E-1,-4.5088187E-2,4.025956E-2,-2.778166E-2,-2.9705295E-2,2.1243913E-2],"categories":[],"categories_nodes":[],"categories_segments":[],"categories_sizes":[],"default_left":[0,0,0,0,0,0,0,0,0],"id":20,"left_children":[1,3,5,7,-1,-1,-1,-1,-1],"loss_changes":[3.2636538E0,3.7107105E0,7.302742E-1,5.052419E-1,0E0,0E0,0E0,0E0,0E0],"parents":[2147483647,0,0,1,1,2,2,3,3],"right_children":[2,4,6,8,-1,-1,-1,-1,-1],"split_conditions":[8E0,3E0,9E0,2E0,-4.5088187E-2,4.025956E-2,-2.778166E-2,-2.9705295E-2,2.1243913E-2],"split_indices":[0,0,0,0,0,0,0,0,0],"split_type":[0,0,0,0,0,0,0,0,0],"sum_hessian":[5.516477E1,3.7957275E1,1.7207493E1,1.7952168E1,2.0005108E1,1.6164274E1,1.0432186E0,1.309138E0,1.664303E1],"tree_param":{"num_deleted":"0","num_feature":"2","num_nodes":"9","size_leaf_vector":"1"}},{"base_weights":[5.4369164E-3,-1.821117E-1,9.8410115E-2,4.070174E-2,-2.3814578E-2,4.154894E-2,-5.705217E-2,-5.5274393E-2,4.5660436E-2,5.0943103E-2,-1.6396873E-2],"categories":[],"categories_nodes":[],"categories_segments":[],"categories_sizes":[],"default_left":[0,0,0,0,0,0,0,0,0,0,0],"id":21,"left_children":[1,3,5,-1,-1,-1,7,-1,9,-1,-1],"loss_changes":[2.03367E0,1.3733002E0,3.865529E0,0E0,0E0,0E0,2.732617E0,0E0,4.455714E0,0E0,0E0],"parents":[2147483647,0,0,1,1,2,2,6,6,8,8],"right_children":[2,4,6,-1,-1,-1,8,-1,10,-1,-1],"split_conditions":[3E0,2E0,5E0,4.070174E-2,-2.3814578E-2,4.154894E-2,6E0,-5.5274393E-2,8E0,5.0943103E-2,-1.6396873E-2],"split_indices":[0,0,0,0,0,0,0,0,0,0,0],"split_type":[0,0,0,0,0,0,0,0,0,0,0],"sum_hessian":[1.1460183E2,3.7664665E1,7.6937164E1,2.7272503E0,3.4937416E1,2.4761417E1,5.2175743E1,8.2036085E0,4.3972134E1,1.3243308E1,3.0728827E1],"tree_param":{"num_deleted":"0","num_feature":"2","num_nodes":"11","size_leaf_vector":"1"}},{"base_weights":[-7.7045057E-3,8.731794E-2,-1.8612379E-1,-2.333558E-2,6.1440077E-2,-4.679905E-2,-3.7187133E-2,1.6320957E-1,-3.173056E-1,-6.8909203E-4,-2.7572026E-2,-3.3019863E-2,2.0975137E-2,-4.3662157E-2,-2.3285178E-2],"categories":[],"categories_nodes":[],"categories_segments":[],"categories_sizes":[],"default_left":[0,0,0,0,0,0,0,0,0,0,0,0,0,0,0],"id":22,"left_children":[1,3,5,7,-1,-1,9,11,13,-1,-1,-1,-1,-1,-1],"loss_changes":[1.2796825E0,2.8900251E0,1.0831543E0,2.3393352E0,0E0,0E0,1.2990694E-1,6.7046577E-1,6.4938664E-2,0E0,0E0,0E0,0E0,0E0,0E0],"parents":[2147483647,0,0,1,1,2,2,3,3,6,6,7,7,8,8],"right_children":[2,4,6,8,-1,-1,10,12,14,-1,-1,-1,-1,-1,-1],"split_conditions":[6E0,5E0,8E0,3E0,6.1440077E-2,-4.679905E-2,9E0,2E0,4E0,-6.8909203E-4,-2.7572026E-2,-3.3019863E-2,2.0975137E-2,-4.3662157E-2,-2.3285178E-2],"split_indices":[0,0,0,0,0,0,0,0,0,0,0,0,0,0,0],"split_type":[0,0,0,0,0,0,0,0,0,0,0,0,0,0,0],"sum_hessian":[7.352181E1,4.830576E1,2.5216053E1,4.0714134E1,7.591625E0,7.977052E0,1.7239002E1,2.5180256E1,1.5533877E1,1.6209158E1,1.0298443E0,1.6451106E0,2.3535145E1,4.7098627E0,1.0824016E1],"tree_param":{"num_deleted":"0","num_feature":"2","num_nodes":"15","size_leaf_vector":"1"}},{"base_weights":[-9.721889E-4,-1.5616667E-1,3.1081507E-1,1.426321E-1,-4.44155E-2,3.603073E-2,-2.7665535E-2,-2.8836433E-2,1.8770851E-2],"categories":[],"categories_nodes":[],"categories_segments":[],"categories_sizes":[],"default_left":[0,0,0,0,0,0,0,0,0],"id":23,"left_children":[1,3,5,7,-1,-1,-1,-1,-1],"loss_changes":[2.7546594E0,3.3337274E0,6.497992E-1,4.3121162E-1,0E0,0E0,0E0,0E0,0E0],"parents":[2147483647,0,0,1,1,2,2,3,3],"right_children":[2,4,6,8,-1,-1,-1,-1,-1],"split_conditions":[8E0,3E0,9E0,2E0,-4.44155E-2,3.603073E-2,-2.7665535E-2,-2.8836433E-2,1.8770851E-2],"split_indices":[0,0,0,0,0,0,0,0,0],"split_type":[0,0,0,0,0,0,0,0,0],"sum_hessian":[5.4925835E1,3.700529E1,1.7920542E1,1.8409485E1,1.8595808E1,1.6884747E1,1.0357966E0,1.2320505E0,1.7177433E1],"tree_param":{"num_deleted":"0","num_feature":"2","num_nodes":"9","size_leaf_vector":"1"}},{"base_weights":[5.8960146E-3,-1.6204764E-1,9.248839E-2,3.9780315E-2,-2.1217331E-2,4.0316634E-2,-5.1968187E-2,-5.0086856E-2,4.344007E-2,5.02366E-2,-1.4596186E-2],"categories":[],"categories_nodes":[],"categories_segments":[],"categories_sizes":[],"default_left":[0,0,0,0,0,0,0,0,0,0,0],"id":24,"left_children":[1,3,5,-1,-1,-1,7,-1,9,-1,-1],"loss_changes":[1.6776584E0,1.1861055E0,3.435041E0,0E0,0E0,0E0,2.2836907E0,0E0,3.939267E0,0E0,0E0],"parents":[2147483647,0,0,1,1,2,2,6,6,8,8],"right_children":[2,4,6,-1,-1,-1,8,-1,10,-1,-1],"split_conditions":[3E0,2E0,5E0,3.9780315E-2,-2.1217331E-2,4.0316634E-2,6E0,-5.0086856E-2,8E0,5.02366E-2,-1.4596186E-2],"split_indices":[0,0,0,0,0,0,0,0,0,0,0],"split_type":[0,0,0,0,0,0,0,0,0,0,0],"sum_hessian":[1.13330734E2,3.8258324E1,7.507241E1,2.5739467E0,3.568438E1,2.3259045E1,5.1813362E1,8.337112E0,4.347625E1,1.2218387E1,3.1257864E1],"tree_param":{"num_deleted":"0","num_feature":"2","num_nodes":"11","size_leaf_vector":"1"}},{"base_weights":[-8.535444E-3,8.0325626E-2,-1.7862055E-1,-2.123373E-2,5.45376E-2,-4.6129704E-2,-4.0544204E-2,1.443262E-1,-3.0306938E-1,-1.0920565E-3,-2.7433315E-2,-3.2103408E-2,1.8561814E-2,-4.2902093E-2,-2.159304E-2],"categories":[],"categories_nodes":[],"categories_segments":[],"categories_sizes":[],"default_left":[0,0,0,0,0,0,0,0,0,0,0,0,0,0,0],"id":25,"left_children":[1,3,5,7,-1,-1,9,11,13,-1,-1,-1,-1,-1,-1],"loss_changes":[1.131098E0,2.336373E0,9.830721E-1,1.9737399E0,0E0,0E0,1.2401971E-1,5.732918E-1,7.889259E-2,0E0,0E0,0E0,0E0,0E0,0E0],"parents":[2147483647,0,0,1,1,2,2,3,3,6,6,7,7,8,8],"right_children":[2,4,6,8,-1,-1,10,12,14,-1,-1,-1,-1,-1,-1],"split_conditions":[6E0,5E0,8E0,3E0,5.45376E-2,-4.6129704E-2,9E0,2E0,4E0,-1.0920565E-3,-2.7433315E-2,-3.2103408E-2,1.8561814E-2,-4.2902093E-2,-2.159304E-2],"split_indices":[0,0,0,0,0,0,0,0,0,0,0,0,0,0,0],"split_type":[0,0,0,0,0,0,0,0,0,0,0,0,0,0,0],"sum_hessian":[7.288875E1,4.822257E1,2.466618E1,4.0362423E1,7.860148E0,7.32638E0,1.73398E1,2.5733555E1,1.4628866E1,1.6318745E1,1.0210539E0,1.5451355E0,2.418842E1,4.377775E0,1.0251091E1],"tree_param":{"num_deleted":"0","num_feature":"2","num_nodes":"15","size_leaf_vector":"1"}},{"base_weights":[-7.797476E-4,-1.4808181E-1,2.7854827E-1,1.2632217E-1,-4.3725114E-2,3.2405324E-2,-2.7525235E-2,-2.7985929E-2,1.6658938E-2],"categories":[],"categories_nodes":[],"categories_segments":[],"categories_sizes":[],"default_left":[0,0,0,0,0,0,0,0,0],"id":26,"left_children":[1,3,5,7,-1,-1,-1,-1,-1],"loss_changes":[2.3323798E0,2.9999352E0,5.824462E-1,3.7074956E-1,0E0,0E0,0E0,0E0,0E0],"parents":[2147483647,0,0,1,1,2,2,3,3],"right_children":[2,4,6,8,-1,-1,-1,-1,-1],"split_conditions":[8E0,3E0,9E0,2E0,-4.3725114E-2,3.2405324E-2,-2.7525235E-2,-2.7985929E-2,1.6658938E-2],"split_indices":[0,0,0,0,0,0,0,0,0],"split_type":[0,0,0,0,0,0,0,0,0],"sum_hessian":[5.468353E1,3.6110645E1,1.8572884E1,1.8817318E1,1.7293327E1,1.754601E1,1.0268736E0,1.1605562E0,1.7656761E1],"tree_param":{"num_deleted":"0","num_feature":"2","num_nodes":"9","size_leaf_vector":"1"}},{"base_weights":[6.3152104E-3,-1.4451176E-1,8.696861E-2,3.8883906E-2,-1.896463E-2,3.9090883E-2,-4.7298573E-2,-4.563008E-2,4.138873E-2,4.9555786E-2,-1.30163105E-2],"categories":[],"categories_nodes":[],"categories_segments":[],"categories_sizes":[],"default_left":[0,0,0,0,0,0,0,0,0,0,0],"id":27,"left_children":[1,3,5,-1,-1,-1,7,-1,9,-1,-1],"loss_changes":[1.3879433E0,1.031095E0,3.050336E0,0E0,0E0,0E0,1.9203964E0,0E0,3.492477E0,0E0,0E0],"parents":[2147483647,0,0,1,1,2,2,6,6,8,8],"right_children":[2,4,6,-1,-1,-1,8,-1,10,-1,-1],"split_conditions":[3E0,2E0,5E0,3.8883906E-2,-1.896463E-2,3.9090883E-2,6E0,-4.563008E-2,8E0,4.9555786E-2,-1.30163105E-2],"split_indices":[0,0,0,0,0,0,0,0,0,0,0],"split_type":[0,0,0,0,0,0,0,0,0,0,0],"sum_hessian":[1.12062744E2,3.876952E1,7.329322E1,2.4307263E0,3.6338795E1,2.1871456E1,5.142177E1,8.424619E0,4.299715E1,1.1270573E1,3.1726576E1],"tree_param":{"num_deleted":"0","num_feature":"2","num_nodes":"11","size_leaf_vector":"1"}},{"base_weights":[-9.282858E-3,7.3902994E-2,-1.7130598E-1,-1.9257903E-2,4.8726015E-2,-4.5455802E-2,-4.3124884E-2,1.2794343E-1,-2.88742E-1,-1.4119388E-3,-2.7274037E-2,-3.1205049E-2,1.6484957E-2,-4.2145263E-2,-1.9906987E-2],"categories":[],"categories_nodes":[],"categories_segments":[],"categories_sizes":[],"default_left":[0,0,0,0,0,0,0,0,0,0,0,0,0,0,0],"id":28,"left_children":[1,3,5,7,-1,-1,9,11,13,-1,-1,-1,-1,-1,-1],"loss_changes":[9.9977905E-1,1.8998437E0,8.934367E-1,1.6643221E0,0E0,0E0,1.1881219E-1,4.9353185E-1,9.222436E-2,0E0,0E0,0E0,0E0,0E0,0E0],"parents":[2147483647,0,0,1,1,2,2,3,3,6,6,7,7,8,8],"right_children":[2,4,6,8,-1,-1,10,12,14,-1,-1,-1,-1,-1,-1],"split_conditions":[6E0,5E0,8E0,3E0,4.8726015E-2,-4.5455802E-2,9E0,2E0,4E0,-1.4119388E-3,-2.7274037E-2,-3.1205049E-2,1.6484957E-2,-4.2145263E-2,-1.9906987E-2],"split_indices":[0,0,0,0,0,0,0,0,0,0,0,0,0,0,0],"split_type":[0,0,0,0,0,0,0,0,0,0,0,0,0,0,0],"sum_hessian":[7.2239105E1,4.8091736E1,2.4147367E1,4.002456E1,8.067176E0,6.729791E0,1.7417576E1,2.6224874E1,1.3799685E1,1.6406559E1,1.0110185E0,1.4525357E0,2.4772339E1,4.0725594E0,9.727125E0],"tree_param":{"num_deleted":"0","num_feature":"2","num_nodes":"15","size_leaf_vector":"1"}},{"base_weights":[-6.1602984E-4,-1.4027372E-1,2.505749E-1,1.12176634E-1,-4.301582E-2,2.9268904E-2,-2.7364362E-2,-2.7154593E-2,1.484011E-2],"categories":[],"categories_nodes":[],"categories_segments":[],"categories_sizes":[],"default_left":[0,0,0,0,0,0,0,0,0],"id":29,"left_children":[1,3,5,7,-1,-1,-1,-1,-1],"loss_changes":[1.9801394E0,2.7027948E0,5.2538216E-1,3.208268E-1,0E0,0E0,0E0,0E0,0E0],"parents":[2147483647,0,0,1,1,2,2,3,3],"right_children":[2,4,6,8,-1,-1,-1,-1,-1],"split_conditions":[8E0,3E0,9E0,2E0,-4.301582E-2,2.9268904E-2,-2.7364362E-2,-2.7154593E-2,1.484011E-2],"split_indices":[0,0,0,0,0,0,0,0,0],"split_type":[0,0,0,0,0,0,0,0,0],"sum_hessian":[5.444325E1,3.527342E1,1.916983E1,1.9181738E1,1.609168E1,1.8153128E1,1.0167017E0,1.0942494E0,1.8087488E1],"tree_param":{"num_deleted":"0","num_feature":"2","num_nodes":"9","size_leaf_vector":"1"}},{"base_weights":[6.703772E-3,-1.2909524E-1,8.182011E-2,3.8010534E-2,-1.69971E-2,3.786966E-2,-4.299306E-2,-4.1747555E-2,3.9496005E-2,4.889482E-2,-1.1623687E-2],"categories":[],"categories_nodes":[],"categories_segments":[],"categories_sizes":[],"default_left":[0,0,0,0,0,0,0,0,0,0,0],"id":30,"left_children":[1,3,5,-1,-1,-1,7,-1,9,-1,-1],"loss_changes":[1.1511729E0,9.0155274E-1,2.7066236E0,0E0,0E0,0E0,1.6232297E0,0E0,3.1042657E0,0E0,0E0],"parents":[2147483647,0,0,1,1,2,2,6,6,8,8],"right_children":[2,4,6,-1,-1,-1,8,-1,10,-1,-1],"split_conditions":[3E0,2E0,5E0,3.8010534E-2,-1.69971E-2,3.786966E-2,6E0,-4.1747555E-2,8E0,4.889482E-2,-1.1623687E-2],"split_indices":[0,0,0,0,0,0,0,0,0,0,0],"split_type":[0,0,0,0,0,0,0,0,0,0,0],"sum_hessian":[1.108166E2,3.921079E1,7.1605804E1,2.2970293E0,3.691376E1,2.0592073E1,5.1013733E1,8.475557E0,4.2538174E1,1.0395789E1,3.2142384E1],"tree_param":{"num_deleted":"0","num_feature":"2","num_nodes":"11","size_leaf_vector":"1"}},{"base_weights":[-9.954088E-3,6.798746E-2,-1.641913E-1,-1.7406967E-2,4.374811E-2,-4.47745E-2,-4.5060064E-3,1.1364483E-1,-2.7435553E-1,-3.0325213E-2,1.4684701E-2,-4.139093E-2,-1.8232895E-2],"categories":[],"categories_nodes":[],"categories_segments":[],"categories_sizes":[],"default_left":[0,0,0,0,0,0,0,0,0,0,0,0,0],"id":31,"left_children":[1,3,5,7,-1,-1,-1,9,11,-1,-1,-1,-1],"loss_changes":[8.83739E-1,1.5513457E0,8.128161E-1,1.4017812E0,0E0,0E0,0E0,4.274246E-1,1.0485208E-1,0E0,0E0,0E0,0E0],"parents":[2147483647,0,0,1,1,2,2,3,3,7,7,8,8],"right_children":[2,4,6,8,-1,-1,-1,10,12,-1,-1,-1,-1],"split_conditions":[6E0,5E0,8E0,3E0,4.374811E-2,-4.47745E-2,-4.5060064E-3,2E0,4E0,-3.0325213E-2,1.4684701E-2,-4.139093E-2,-1.8232895E-2],"split_indices":[0,0,0,0,0,0,0,0,0,0,0,0,0],"split_type":[0,0,0,0,0,0,0,0,0,0,0,0,0],"sum_hessian":[7.15847E1,4.7925465E1,2.3659239E1,3.9702602E1,8.222859E0,6.1833467E0,1.7475891E1,2.666191E1,1.3040693E1,1.3667735E0,2.5295137E1,3.7922385E0,9.248455E0],"tree_param":{"num_deleted":"0","num_feature":"2","num_nodes":"13","size_leaf_vector":"1"}},{"base_weights":[-4.9060286E-4,-1.3275963E-1,2.2614592E-1,9.983402E-2,-4.228669E-2,2.653429E-2,-2.7185956E-2,-2.6343167E-2,1.3262409E-2],"categories":[],"categories_nodes":[],"categories_segments":[],"categories_sizes":[],"default_left":[0,0,0,0,0,0,0,0,0],"id":32,"left_children":[1,3,5,7,-1,-1,-1,-1,-1],"loss_changes":[1.685017E0,2.437152E0,4.7652352E-1,2.7921784E-1,0E0,0E0,0E0,0E0,0E0],"parents":[2147483647,0,0,1,1,2,2,3,3],"right_children":[2,4,6,8,-1,-1,-1,-1,-1],"split_conditions":[8E0,3E0,9E0,2E0,-4.228669E-2,2.653429E-2,-2.7185956E-2,-2.6343167E-2,1.3262409E-2],"split_indices":[0,0,0,0,0,0,0,0,0],"split_type":[0,0,0,0,0,0,0,0,0],"sum_hessian":[5.4208805E1,3.449256E1,1.9716244E1,1.9507935E1,1.4984626E1,1.8710749E1,1.0054955E0,1.0327462E0,1.847519E1],"tree_param":{"num_deleted":"0","num_feature":"2","num_nodes":"9","size_leaf_vector":"1"}},{"base_weights":[6.98168E-3,-1.1547587E-1,7.688798E-2,3.715867E-2,-1.5268618E-2,3.6651883E-2,-3.9201517E-2,-3.832658E-2,3.7534874E-2,4.8248608E-2,-1.0421455E-2],"categories":[],"categories_nodes":[],"categories_segments":[],"categories_sizes":[],"default_left":[0,0,0,0,0,0,0,0,0,0,0],"id":33,"left_children":[1,3,5,-1,-1,-1,7,-1,9,-1,-1],"loss_changes":[9.5567805E-1,7.924257E-1,2.4018662E0,0E0,0E0,0E0,1.3765703E0,0E0,2.7684028E0,0E0,0E0],"parents":[2147483647,0,0,1,1,2,2,6,6,8,8],"right_children":[2,4,6,-1,-1,-1,8,-1,10,-1,-1],"split_conditions":[3E0,2E0,5E0,3.715867E-2,-1.5268618E-2,3.6651883E-2,6E0,-3.832658E-2,8E0,4.8248608E-2,-1.0421455E-2],"split_indices":[0,0,0,0,0,0,0,0,0,0,0],"split_type":[0,0,0,0,0,0,0,0,0,0,0],"sum_hessian":[1.0960024E2,3.9592564E1,7.000768E1,2.1722946E0,3.742027E1,1.9414179E1,5.0593502E1,8.49769E0,4.2095814E1,9.589765E0,3.250605E1],"tree_param":{"num_deleted":"0","num_feature":"2","num_nodes":"11","size_leaf_vector":"1"}},{"base_weights":[-1.0388055E-2,6.2527336E-2,-1.568935E-1,-1.5678149E-2,3.9423153E-2,-4.408344E-2,-4.5840185E-2,1.011022E-1,-2.5994807E-1,-1.7258518E-3,-2.7211396E-2,-2.9464383E-2,1.3114653E-2,-4.063877E-2,-1.6576989E-2],"categories":[],"categories_nodes":[],"categories_segments":[],"categories_sizes":[],"default_left":[0,0,0,0,0,0,0,0,0,0,0,0,0,0,0],"id":34,"left_children":[1,3,5,7,-1,-1,9,11,13,-1,-1,-1,-1,-1,-1],"loss_changes":[7.7807033E-1,1.2703893E0,7.423695E-1,1.1786659E0,0E0,0E0,1.14951864E-1,3.7216854E-1,1.1670089E-1,0E0,0E0,0E0,0E0,0E0,0E0],"parents":[2147483647,0,0,1,1,2,2,3,3,6,6,7,7,8,8],"right_children":[2,4,6,8,-1,-1,10,12,14,-1,-1,-1,-1,-1,-1],"split_conditions":[6E0,5E0,8E0,3E0,3.9423153E-2,-4.408344E-2,9E0,2E0,4E0,-1.7258518E-3,-2.7211396E-2,-2.9464383E-2,1.3114653E-2,-4.063877E-2,-1.6576989E-2],"split_indices":[0,0,0,0,0,0,0,0,0,0,0,0,0,0,0],"split_type":[0,0,0,0,0,0,0,0,0,0,0,0,0,0,0],"sum_hessian":[7.0917625E1,4.7733826E1,2.3183796E1,3.9397793E1,8.336034E0,5.6832647E0,1.750053E1,2.7051254E1,1.2346537E1,1.6493443E1,1.0070888E0,1.2873397E0,2.5763916E1,3.5349197E0,8.811617E0],"tree_param":{"num_deleted":"0","num_feature":"2","num_nodes":"15","size_leaf_vector":"1"}},{"base_weights":[-4.5648633E-4,-1.2555237E-1,2.0451669E-2,8.900867E-3,-4.153711E-2],"categories":[],"categories_nodes":[],"categories_segments":[],"categories_sizes":[],"default_left":[0,0,0,0,0],"id":35,"left_children":[1,3,-1,-1,-1],"loss_changes":[1.4356028E0,2.1988711E0,0E0,0E0,0E0],"parents":[2147483647,0,0,1,1],"right_children":[2,4,-1,-1,-1],"split_conditions":[8E0,3E0,2.0451669E-2,8.900867E-3,-4.153711E-2],"split_indices":[0,0,0,0,0],"split_type":[0,0,0,0,0],"sum_hessian":[5.3986492E1,3.3766277E1,2.0220217E1,1.9800377E1,1.39659E1],"tree_param":{"num_deleted":"0","num_feature":"2","num_nodes":"5","size_leaf_vector":"1"}},{"base_weights":[7.1770158E-3,-1.0356097E-1,7.227963E-2,3.6518473E-2,-1.3808595E-2,3.543735E-1,-3.5680823E-2,4.5136213E-2,2.8400982E-2,-3.5284072E-2,3.5726186E-2,4.7612727E-2,-9.3514975E-3],"categories":[],"categories_nodes":[],"categories_segments":[],"categories_sizes":[],"default_left":[0,0,0,0,0,0,0,0,0,0,0,0,0],"id":36,"left_children":[1,3,5,-1,-1,7,9,-1,-1,-1,11,-1,-1],"loss_changes":[7.9648995E-1,7.1282315E-1,2.1296186E0,0E0,0E0,3.733635E-3,1.1717126E0,0E0,0E0,0E0,2.473959E0,0E0,0E0],"parents":[2147483647,0,0,1,1,2,2,5,5,6,6,10,10],"right_children":[2,4,6,-1,-1,8,10,-1,-1,-1,12,-1,-1],"split_conditions":[3E0,2E0,5E0,3.6518473E-2,-1.3808595E-2,4E0,6E0,4.5136213E-2,2.8400982E-2,-3.5284072E-2,8E0,4.7612727E-2,-9.3514975E-3],"split_indices":[0,0,0,0,0,0,0,0,0,0,0,0,0],"split_type":[0,0,0,0,0,0,0,0,0,0,0,0,0],"sum_hessian":[1.08442116E2,3.9930523E1,6.85116E1,2.0822604E0,3.7848263E1,1.8331114E1,5.0180485E1,5.430734E0,1.2900378E1,8.49739E0,4.1683094E1,8.848159E0,3.2834934E1],"tree_param":{"num_deleted":"0","num_feature":"2","num_nodes":"13","size_leaf_vector":"1"}},{"base_weights":[-1.1042025E-2,5.7372283E-2,-1.503171E-1,-1.4186475E-2,3.562082E-2,-4.338073E-2,-4.697688E-3,8.986287E-2,-2.4556285E-1,-2.8607896E-2,1.171463E-2,-3.988885E-2,-1.4945676E-2],"categories":[],"categories_nodes":[],"categories_segments":[],"categories_sizes":[],"default_left":[0,0,0,0,0,0,0,0,0,0,0,0,0],"id":37,"left_children":[1,3,5,7,-1,-1,-1,9,11,-1,-1,-1,-1],"loss_changes":[6.8791455E-1,1.0428575E0,6.756928E-1,9.878603E-1,0E0,0E0,0E0,3.2485855E-1,1.2770373E-1,0E0,0E0,0E0,0E0],"parents":[2147483647,0,0,1,1,2,2,3,3,7,7,8,8],"right_children":[2,4,6,8,-1,-1,-1,10,12,-1,-1,-1,-1],"split_conditions":[6E0,5E0,8E0,3E0,3.562082E-2,-4.338073E-2,-4.697688E-3,2E0,4E0,-2.8607896E-2,1.171463E-2,-3.988885E-2,-1.4945676E-2],"split_indices":[0,0,0,0,0,0,0,0,0,0,0,0,0],"split_type":[0,0,0,0,0,0,0,0,0,0,0,0,0],"sum_hessian":[7.029108E1,4.7531067E1,2.276001E1,3.9116756E1,8.414308E0,5.2259526E0,1.7534058E1,2.7404598E1,1.1712159E1,1.2124635E0,2.6192135E1,3.2988079E0,8.413352E0],"tree_param":{"num_deleted":"0","num_feature":"2","num_nodes":"13","size_leaf_vector":"1"}},{"base_weights":[3.146874E-5,-1.18343845E-1,1.862191E-1,8.011034E-3,-4.076679E-2,2.2221282E-2,-2.7404804E-2],"categories":[],"categories_nodes":[],"categories_segments":[],"categories_sizes":[],"default_left":[0,0,0,0,0,0,0],"id":38,"left_children":[1,3,5,-1,-1,-1,-1],"loss_changes":[1.2286296E0,1.9893827E0,4.1984248E-1,0E0,0E0,0E0,0E0],"parents":[2147483647,0,0,1,1,2,2],"right_children":[2,4,6,-1,-1,-1,-1],"split_conditions":[8E0,3E0,9E0,8.011034E-3,-4.076679E-2,2.2221282E-2,-2.7404804E-2],"split_indices":[0,0,0,0,0,0,0],"split_type":[0,0,0,0,0,0,0],"sum_hessian":[5.3745495E1,3.3078846E1,2.066665E1,2.004952E1,1.3029325E1,1.9647398E1,1.0192529E0],"tree_param":{"num_deleted":"0","num_feature":"2","num_nodes":"7","size_leaf_vector":"1"}},{"base_weights":[7.541877E-3,-9.294879E-2,6.8229854E-2,3.5891112E-2,-1.2510217E-2,3.4269714E-1,-3.2409564E-2,4.4362154E-2,2.7125528E-2,-3.2557514E-2,3.407144E-2,4.6983402E-2,-8.398235E-3],"categories":[],"categories_nodes":[],"categories_segments":[],"categories_sizes":[],"default_left":[0,0,0,0,0,0,0,0,0,0,0,0,0],"id":39,"left_children":[1,3,5,-1,-1,7,9,-1,-1,-1,11,-1,-1],"loss_changes":[6.672122E-1,6.438581E-1,1.8932643E0,0E0,0E0,1.210165E-2,1.0006242E0,0E0,0E0,0E0,2.2150779E0,0E0,0E0],"parents":[2147483647,0,0,1,1,2,2,5,5,6,6,10,10],"right_children":[2,4,6,-1,-1,8,10,-1,-1,-1,12,-1,-1],"split_conditions":[3E0,2E0,5E0,3.5891112E-2,-1.2510217E-2,4E0,6E0,4.4362154E-2,2.7125528E-2,-3.2557514E-2,8E0,4.6983402E-2,-8.398235E-3],"split_indices":[0,0,0,0,0,0,0,0,0,0,0,0,0],"split_type":[0,0,0,0,0,0,0,0,0,0,0,0,0],"sum_hessian":[1.073647E2,4.0225464E1,6.713924E1,1.9971082E0,3.8228355E1,1.7367847E1,4.977139E1,5.039339E0,1.2328508E1,8.479876E0,4.1291515E1,8.166677E0,3.3124836E1],"tree_param":{"num_deleted":"0","num_feature":"2","num_nodes":"13","size_leaf_vector":"1"}},{"base_weights":[-1.1614282E-2,5.2288573E-2,-1.4345759E-1,-1.3140434E-2,3.2244973E-2,-4.2664975E-2,-4.697595E-3,7.990123E-2,-2.3188247E-1,-2.7771205E-2,1.0479427E-2,-3.904407E-2,-1.3575456E-2],"categories":[],"categories_nodes":[],"categories_segments":[],"categories_sizes":[],"default_left":[0,0,0,0,0,0,0,0,0,0,0,0,0],"id":40,"left_children":[1,3,5,7,-1,-1,-1,9,11,-1,-1,-1,-1],"loss_changes":[6.0302716E-1,8.5874265E-1,6.1774206E-1,8.301192E-1,0E0,0E0,0E0,2.8478E-1,1.3228226E-1,0E0,0E0,0E0,0E0],"parents":[2147483647,0,0,1,1,2,2,3,3,7,7,8,8],"right_children":[2,4,6,8,-1,-1,-1,10,12,-1,-1,-1,-1],"split_conditions":[6E0,5E0,8E0,3E0,3.2244973E-2,-4.2664975E-2,-4.697595E-3,2E0,4E0,-2.7771205E-2,1.0479427E-2,-3.904407E-2,-1.3575456E-2],"split_indices":[0,0,0,0,0,0,0,0,0,0,0,0,0],"split_type":[0,0,0,0,0,0,0,0,0,0,0,0,0],"sum_hessian":[6.9684204E1,4.734167E1,2.2342531E1,3.8877483E1,8.464188E0,4.808011E0,1.753452E1,2.7721079E1,1.11564045E1,1.1430998E0,2.657798E1,3.055247E0,8.101158E0],"tree_param":{"num_deleted":"0","num_feature":"2","num_nodes":"13","size_leaf_vector":"1"}},{"base_weights":[6.720242E-5,-1.115876E-1,1.6913268E-1,7.2250725E-3,-3.9985802E-2,2.0297868E-2,-2.7154466E-2],"categories":[],"categories_nodes":[],"categories_segments":[],"categories_sizes":[],"default_left":[0,0,0,0,0,0,0],"id":41,"left_children":[1,3,5,-1,-1,-1,-1],"loss_changes":[1.048518E0,1.8017133E0,3.8463032E-1,0E0,0E0,0E0,0E0],"parents":[2147483647,0,0,1,1,2,2],"right_children":[2,4,6,-1,-1,-1,-1],"split_conditions":[8E0,3E0,9E0,7.2250725E-3,-3.9985802E-2,2.0297868E-2,-2.7154466E-2],"split_indices":[0,0,0,0,0,0,0],"split_type":[0,0,0,0,0,0,0],"sum_hessian":[5.354502E1,3.2452564E1,2.1092459E1,2.0273153E1,1.2179409E1,2.0088932E1,1.0035259E0],"tree_param":{"num_deleted":"0","num_feature":"2","num_nodes":"7","size_leaf_vector":"1"}},{"base_weights":[7.887469E-3,-8.347037E-2,6.44542E-2,3.5276227E-2,-1.1351678E-2,3.3110076E-1,-2.9369712E-2,4.3593924E-2,2.5874464E-2,-3.0098999E-2,3.2550693E-2,4.635734E-2,-7.546281E-3],"categories":[],"categories_nodes":[],"categories_segments":[],"categories_sizes":[],"default_left":[0,0,0,0,0,0,0,0,0,0,0,0,0],"id":42,"left_children":[1,3,5,-1,-1,7,9,-1,-1,-1,11,-1,-1],"loss_changes":[5.600986E-1,5.8377403E-1,1.6823618E0,0E0,0E0,1.9826531E-2,8.5703754E-1,0E0,0E0,0E0,1.9868579E0,0E0,0E0],"parents":[2147483647,0,0,1,1,2,2,5,5,6,6,10,10],"right_children":[2,4,6,-1,-1,8,10,-1,-1,-1,12,-1,-1],"split_conditions":[3E0,2E0,5E0,3.5276227E-2,-1.1351678E-2,4E0,6E0,4.3593924E-2,2.5874464E-2,-3.0098999E-2,8E0,4.635734E-2,-7.546281E-3],"split_indices":[0,0,0,0,0,0,0,0,0,0,0,0,0],"split_type":[0,0,0,0,0,0,0,0,0,0,0,0,0],"sum_hessian":[1.0634105E2,4.048321E1,6.5857834E1,1.9165758E0,3.8566635E1,1.6483355E1,4.937448E1,4.6789727E0,1.1804382E1,8.449399E0,4.0925083E1,7.5410547E0,3.3384026E1],"tree_param":{"num_deleted":"0","num_feature":"2","num_nodes":"13","size_leaf_vector":"1"}},{"base_weights":[-1.2128453E-2,4.7575008E-2,-1.3683319E-1,-1.2183767E-2,2.9223321E-2,-4.1935213E-2,-4.669967E-2,7.104687E-2,-2.1836978E-1,-1.8430064E-3,-2.7103717E-2,-2.6954636E-2,9.385647E-3,-3.819447E-2,-1.2251117E-2],"categories":[],"categories_nodes":[],"categories_segments":[],"categories_sizes":[],"default_left":[0,0,0,0,0,0,0,0,0,0,0,0,0,0,0],"id":43,"left_children":[1,3,5,7,-1,-1,9,11,13,-1,-1,-1,-1,-1,-1],"loss_changes":[5.2840936E-1,7.0746547E-1,5.648923E-1,6.9601595E-1,0E0,0E0,1.12498E-1,2.5063086E-1,1.3586766E-1,0E0,0E0,0E0,0E0,0E0,0E0],"parents":[2147483647,0,0,1,1,2,2,3,3,6,6,7,7,8,8],"right_children":[2,4,6,8,-1,-1,10,12,14,-1,-1,-1,-1,-1,-1],"split_conditions":[6E0,5E0,8E0,3E0,2.9223321E-2,-4.1935213E-2,9E0,2E0,4E0,-1.8430064E-3,-2.7103717E-2,-2.6954636E-2,9.385647E-3,-3.819447E-2,-1.2251117E-2],"split_indices":[0,0,0,0,0,0,0,0,0,0,0,0,0,0,0],"split_type":[0,0,0,0,0,0,0,0,0,0,0,0,0,0,0],"sum_hessian":[6.909781E1,4.7145157E1,2.195265E1,3.865397E1,8.491191E0,4.426245E0,1.7526405E1,2.800477E1,1.0649198E1,1.652605E1,1.0003562E0,1.0788056E0,2.6925964E1,2.8320596E0,7.8171377E0],"tree_param":{"num_deleted":"0","num_feature":"2","num_nodes":"15","size_leaf_vector":"1"}},{"base_weights":[6.482262E-5,-1.0514484E-1,1.5388819E-2,6.528405E-3,-3.9185125E-2],"categories":[],"categories_nodes":[],"categories_segments":[],"categories_sizes":[],"default_left":[0,0,0,0,0],"id":44,"left_children":[1,3,-1,-1,-1],"loss_changes":[8.958547E-1,1.6318284E0,0E0,0E0,0E0],"parents":[2147483647,0,0,1,1],"right_children":[2,4,-1,-1,-1],"split_conditions":[8E0,3E0,1.5388819E-2,6.528405E-3,-3.9185125E-2],"split_indices":[0,0,0,0,0],"split_type":[0,0,0,0,0],"sum_hessian":[5.335555E1,3.1872417E1,2.1483131E1,2.0474133E1,1.1398285E1],"tree_param":{"num_deleted":"0","num_feature":"2","num_nodes":"5","size_leaf_vector":"1"}},{"base_weights":[8.209495E-3,-7.4984804E-2,6.092499E-2,3.4673426E-2,-1.031492E-2,3.1960088E-1,-2.655225E-2,4.282954E-2,2.465069E-2,-2.7871136E-2,3.1139804E-2,4.573184E-2,-6.783919E-3],"categories":[],"categories_nodes":[],"categories_segments":[],"categories_sizes":[],"default_left":[0,0,0,0,0,0,0,0,0,0,0,0,0],"id":45,"left_children":[1,3,5,-1,-1,7,9,-1,-1,-1,11,-1,-1],"loss_changes":[4.7109672E-1,5.311588E-1,1.4944361E0,0E0,0E0,2.6878357E-2,7.360012E-1,0E0,0E0,0E0,1.7852639E0,0E0,0E0],"parents":[2147483647,0,0,1,1,2,2,5,5,6,6,10,10],"right_children":[2,4,6,-1,-1,8,10,-1,-1,-1,12,-1,-1],"split_conditions":[3E0,2E0,5E0,3.4673426E-2,-1.031492E-2,4E0,6E0,4.282954E-2,2.465069E-2,-2.7871136E-2,8E0,4.573184E-2,-6.783919E-3],"split_indices":[0,0,0,0,0,0,0,0,0,0,0,0,0],"split_type":[0,0,0,0,0,0,0,0,0,0,0,0,0],"sum_hessian":[1.0537661E2,4.07087E1,6.466791E1,1.8404008E0,3.8868298E1,1.5671812E1,4.8996098E1,4.3474355E0,1.1324376E1,8.409412E0,4.0586685E1,6.967223E0,3.361946E1],"tree_param":{"num_deleted":"0","num_feature":"2","num_nodes":"13","size_leaf_vector":"1"}},{"base_weights":[-1.2797872E-2,4.3203644E-2,-1.3098599E-1,-1.1309415E-2,2.6500532E-2,-4.1190926E-2,-4.694826E-3,6.315747E-2,-2.050719E-1,-2.6158491E-2,8.414019E-3,-3.734078E-2,-1.0976525E-2],"categories":[],"categories_nodes":[],"categories_segments":[],"categories_sizes":[],"default_left":[0,0,0,0,0,0,0,0,0,0,0,0,0],"id":46,"left_children":[1,3,5,7,-1,-1,-1,9,11,-1,-1,-1,-1],"loss_changes":[4.6602905E-1,5.8271354E-1,5.1444286E-1,5.821109E-1,0E0,0E0,0E0,2.2138166E-1,1.3848466E-1,0E0,0E0,0E0,0E0],"parents":[2147483647,0,0,1,1,2,2,3,3,7,7,8,8],"right_children":[2,4,6,8,-1,-1,-1,10,12,-1,-1,-1,-1],"split_conditions":[6E0,5E0,8E0,3E0,2.6500532E-2,-4.1190926E-2,-4.694826E-3,2E0,4E0,-2.6158491E-2,8.414019E-3,-3.734078E-2,-1.0976525E-2],"split_indices":[0,0,0,0,0,0,0,0,0,0,0,0,0],"split_type":[0,0,0,0,0,0,0,0,0,0,0,0,0],"sum_hessian":[6.85558E1,4.6945766E1,2.1610037E1,3.8445805E1,8.499964E0,4.0776606E0,1.7532375E1,2.8259245E1,1.0186559E1,1.019173E0,2.7240072E1,2.6275942E0,7.5589647E0],"tree_param":{"num_deleted":"0","num_feature":"2","num_nodes":"13","size_leaf_vector":"1"}},{"base_weights":[3.1137347E-4,-9.901632E-2,1.4100364E-1,5.9089316E-3,-3.83654E-2,1.725812E-2,-2.7228987E-2],"categories":[],"categories_nodes":[],"categories_segments":[],"categories_sizes":[],"default_left":[0,0,0,0,0,0,0],"id":47,"left_children":[1,3,5,-1,-1,-1,-1],"loss_changes":[7.7085745E-1,1.4778634E0,3.4489617E-1,0E0,0E0,0E0,0E0],"parents":[2147483647,0,0,1,1,2,2],"right_children":[2,4,6,-1,-1,-1,-1],"split_conditions":[8E0,3E0,9E0,5.9089316E-3,-3.83654E-2,1.725812E-2,-2.7228987E-2],"split_indices":[0,0,0,0,0,0,0],"split_type":[0,0,0,0,0,0,0],"sum_hessian":[5.3162098E1,3.133561E1,2.1826488E1,2.0654955E1,1.0680655E1,2.0818296E1,1.0081913E0],"tree_param":{"num_deleted":"0","num_feature":"2","num_nodes":"7","size_leaf_vector":"1"}},{"base_weights":[8.518209E-3,-1.6548758E-3,3.803761E-2,4.219119E-2,-9.674612E-3,-5.1209982E-3,4.510465E-2,3.670085E-3,-2.584424E-2],"categories":[],"categories_nodes":[],"categories_segments":[],"categories_sizes":[],"default_left":[0,0,0,0,0,0,0,0,0],"id":48,"left_children":[1,3,-1,5,-1,7,-1,-1,-1],"loss_changes":[3.9959705E-1,4.3624675E-1,0E0,1.3880591E0,0E0,7.0020086E-1,0E0,0E0,0E0],"parents":[2147483647,0,0,1,1,3,3,5,5],"right_children":[2,4,-1,6,-1,8,-1,-1,-1],"split_conditions":[9E0,8E0,3.803761E-2,6E0,-9.674612E-3,5E0,4.510465E-2,3.670085E-3,-2.584424E-2],"split_indices":[0,0,0,0,0,0,0,0,0],"split_type":[0,0,0,0,0,0,0,0,0],"sum_hessian":[1.04464905E2,1.0265215E2,1.8127518E0,7.0637764E1,3.2014385E1,6.419651E1,6.441259E0,5.58338E1,8.362705E0],"tree_param":{"num_deleted":"0","num_feature":"2","num_nodes":"9","size_leaf_vector":"1"}},{"base_weights":[-1.3192034E-2,3.9149918E-2,-1.248233E-1,-1.0510471E-2,2.4033587E-2,-4.0432043E-2,-4.621278E-3,5.611341E-3,-1.9203477E-1,-3.648402E-2,-9.754988E-3],"categories":[],"categories_nodes":[],"categories_segments":[],"categories_sizes":[],"default_left":[0,0,0,0,0,0,0,0,0,0,0],"id":49,"left_children":[1,3,5,7,-1,-1,-1,-1,9,-1,-1],"loss_changes":[4.0814888E-1,4.7956315E-1,4.7060707E-1,4.8548865E-1,0E0,0E0,0E0,0E0,1.4017192E-1,0E0,0E0],"parents":[2147483647,0,0,1,1,2,2,3,3,8,8],"right_children":[2,4,6,8,-1,-1,-1,-1,10,-1,-1],"split_conditions":[6E0,5E0,8E0,3E0,2.4033587E-2,-4.0432043E-2,-4.621278E-3,5.611341E-3,4E0,-3.648402E-2,-9.754988E-3],"split_indices":[0,0,0,0,0,0,0,0,0,0,0],"split_type":[0,0,0,0,0,0,0,0,0,0,0],"sum_hessian":[6.801629E1,4.6746815E1,2.126947E1,3.8252415E1,8.494401E0,3.7594686E0,1.7510002E1,2.8487629E1,9.764783E0,2.4403021E0,7.324481E0],"tree_param":{"num_deleted":"0","num_feature":"2","num_nodes":"11","size_leaf_vector":"1"}},{"base_weights":[2.2391921E-4,-9.319985E-2,1.2866275E-2,5.3565498E-3,-3.752753E-2],"categories":[],"categories_nodes":[],"categories_segments":[],"categories_sizes":[],"default_left":[0,0,0,0,0],"id":50,"left_children":[1,3,-1,-1,-1],"loss_changes":[6.599124E-1,1.3382146E0,0E0,0E0,0E0],"parents":[2147483647,0,0,1,1],"right_children":[2,4,-1,-1,-1],"split_conditions":[8E0,3E0,1.2866275E-2,5.3565498E-3,-3.752753E-2],"split_indices":[0,0,0,0,0],"split_type":[0,0,0,0,0],"sum_hessian":[5.299684E1,3.083932E1,2.2157524E1,2.0817806E1,1.0021513E1],"tree_param":{"num_deleted":"0","num_feature":"2","num_nodes":"5","size_leaf_vector":"1"}},{"base_weights":[8.293607E-3,-6.642708E-2,5.724335E-2,3.4105968E-2,-9.288712E-3,3.0233315E-1,-2.1325283E-2,4.1678682E-2,2.2839267E-2,-2.3994425E-2,2.888226E-2,4.4473983E-2,-5.4607475E-3],"categories":[],"categories_nodes":[],"categories_segments":[],"categories_sizes":[],"default_left":[0,0,0,0,0,0,0,0,0,0,0,0,0],"id":51,"left_children":[1,3,5,-1,-1,7,9,-1,-1,-1,11,-1,-1],"loss_changes":[3.870517E-1,4.8384678E-1,1.2358905E0,0E0,0E0,3.6528707E-2,5.478589E-1,0E0,0E0,0E0,1.4467547E0,0E0,0E0],"parents":[2147483647,0,0,1,1,2,2,5,5,6,6,10,10],"right_children":[2,4,6,-1,-1,8,10,-1,-1,-1,12,-1,-1],"split_conditions":[3E0,2E0,5E0,3.4105968E-2,-9.288712E-3,4E0,6E0,4.1678682E-2,2.2839267E-2,-2.3994425E-2,8E0,4.4473983E-2,-5.4607475E-3],"split_indices":[0,0,0,0,0,0,0,0,0,0,0,0,0],"split_type":[0,0,0,0,0,0,0,0,0,0,0,0,0],"sum_hessian":[1.0378278E2,4.0936733E1,6.284605E1,1.7711573E0,3.9165573E1,1.4564626E1,4.8281425E1,3.896454E0,1.0668172E1,8.311513E0,3.9969913E1,5.959434E0,3.401048E1],"tree_param":{"num_deleted":"0","num_feature":"2","num_nodes":"13","size_leaf_vector":"1"}},{"base_weights":[-1.3075656E-2,3.6170565E-2,-1.19196534E-1,-8.790037E-3,2.1788469E-2,-3.9658878E-2,-4.5708385E-3,5.523719E-3,-1.864089E-1,-3.604762E-2,-9.299484E-3],"categories":[],"categories_nodes":[],"categories_segments":[],"categories_sizes":[],"default_left":[0,0,0,0,0,0,0,0,0,0,0],"id":52,"left_children":[1,3,5,7,-1,-1,-1,-1,9,-1,-1],"loss_changes":[3.62547E-1,3.9070612E-1,4.2953342E-1,4.5507327E-1,0E0,0E0,0E0,0E0,1.3869551E-1,0E0,0E0],"parents":[2147483647,0,0,1,1,2,2,3,3,8,8],"right_children":[2,4,6,8,-1,-1,-1,-1,10,-1,-1],"split_conditions":[6E0,5E0,8E0,3E0,2.1788469E-2,-3.9658878E-2,-4.5708385E-3,5.523719E-3,4E0,-3.604762E-2,-9.299484E-3],"split_indices":[0,0,0,0,0,0,0,0,0,0,0],"split_type":[0,0,0,0,0,0,0,0,0,0,0],"sum_hessian":[6.7548035E1,4.6587772E1,2.096026E1,3.8110027E1,8.477744E0,3.4690745E0,1.7491186E1,2.8518738E1,9.5912895E0,2.351189E0,7.240101E0],"tree_param":{"num_deleted":"0","num_feature":"2","num_nodes":"11","size_leaf_vector":"1"}},{"base_weights":[5.068001E-4,-8.6990796E-2,1.1750865E-2,5.28979E-3,-3.6854263E-2],"categories":[],"categories_nodes":[],"categories_segments":[],"categories_sizes":[],"default_left":[0,0,0,0,0],"id":53,"left_children":[1,3,-1,-1,-1],"loss_changes":[5.614248E-1,1.2554152E0,0E0,0E0,0E0],"parents":[2147483647,0,0,1,1],"right_children":[2,4,-1,-1,-1],"split_conditions":[8E0,3E0,1.1750865E-2,5.28979E-3,-3.6854263E-2],"split_indices":[0,0,0,0,0],"split_type":[0,0,0,0,0],"sum_hessian":[5.284215E1,3.0379742E1,2.2462408E1,2.0838352E1,9.541389E0],"tree_param":{"num_deleted":"0","num_feature":"2","num_nodes":"5","size_leaf_vector":"1"}},{"base_weights":[8.432194E-3,-1.672886E-3,3.7663497E-2,3.7440103E-2,-8.338057E-3,-3.7932494E-3,4.3837868E-2,3.249934E-3,-2.2302745E-2],"categories":[],"categories_nodes":[],"categories_segments":[],"categories_sizes":[],"default_left":[0,0,0,0,0,0,0,0,0],"id":54,"left_children":[1,3,-1,5,-1,7,-1,-1,-1],"loss_changes":[3.8750532E-1,3.2972565E-1,0E0,1.1556492E0,0E0,5.187381E-1,0E0,0E0,0E0],"parents":[2147483647,0,0,1,1,3,3,5,5],"right_children":[2,4,-1,6,-1,8,-1,-1,-1],"split_conditions":[9E0,8E0,3.7663497E-2,6E0,-8.338057E-3,5E0,4.3837868E-2,3.249934E-3,-2.2302745E-2],"split_indices":[0,0,0,0,0,0,0,0,0],"split_type":[0,0,0,0,0,0,0,0,0],"sum_hessian":[1.0297865E2,1.0119683E2,1.7818229E0,6.880302E1,3.2393814E1,6.3285175E1,5.517839E0,5.5027534E1,8.257639E0],"tree_param":{"num_deleted":"0","num_feature":"2","num_nodes":"9","size_leaf_vector":"1"}},{"base_weights":[-1.3274826E-2,3.2876678E-2,-1.1360174E-1,-7.9015745E-3,1.9737085E-2,-3.887218E-2,-4.4804527E-3,4.945979E-3,-1.7385125E-1,-3.518878E-2,-8.160773E-3],"categories":[],"categories_nodes":[],"categories_segments":[],"categories_sizes":[],"default_left":[0,0,0,0,0,0,0,0,0,0,0],"id":55,"left_children":[1,3,5,7,-1,-1,-1,-1,9,-1,-1],"loss_changes":[3.1885582E-1,3.1943953E-1,3.9269453E-1,3.7924427E-1,0E0,0E0,0E0,0E0,1.3917509E-1,0E0,0E0],"parents":[2147483647,0,0,1,1,2,2,3,3,8,8],"right_children":[2,4,6,8,-1,-1,-1,-1,10,-1,-1],"split_conditions":[6E0,5E0,8E0,3E0,1.9737085E-2,-3.887218E-2,-4.4804527E-3,4.945979E-3,4E0,-3.518878E-2,-8.160773E-3],"split_indices":[0,0,0,0,0,0,0,0,0,0,0],"split_type":[0,0,0,0,0,0,0,0,0,0,0],"sum_hessian":[6.705719E1,4.638971E1,2.0667482E1,3.7937046E1,8.452663E0,3.204086E0,1.7463396E1,2.8713898E1,9.223148E0,2.1871073E0,7.0360413E0],"tree_param":{"num_deleted":"0","num_feature":"2","num_nodes":"11","size_leaf_vector":"1"}},{"base_weights":[4.9687515E-4,-8.194376E-2,1.0804179E-2,4.7849673E-3,-3.5985762E-1,-4.2487398E-2,-2.0743975E-1,7.877676E-3,-3.586611E-2],"categories":[],"categories_nodes":[],"categories_segments":[],"categories_sizes":[],"default_left":[0,0,0,0,0,0,0,0,0],"id":56,"left_children":[1,3,-1,-1,5,-1,7,-1,-1],"loss_changes":[4.8490575E-1,1.1340989E0,0E0,0E0,1.0707378E-2,0E0,2.4191818E-1,0E0,0E0],"parents":[2147483647,0,0,1,1,4,4,6,6],"right_children":[2,4,-1,-1,6,-1,8,-1,-1],"split_conditions":[8E0,3E0,1.0804179E-2,4.7849673E-3,5E0,-4.2487398E-2,6E0,7.877676E-3,-3.586611E-2],"split_indices":[0,0,0,0,0,0,0,0,0],"split_type":[0,0,0,0,0,0,0,0,0],"sum_hessian":[5.269373E1,2.9963036E1,2.2730694E1,2.0988604E1,8.974431E0,5.03788E0,3.9365513E0,1.5264686E0,2.4100826E0],"tree_param":{"num_deleted":"0","num_feature":"2","num_nodes":"9","size_leaf_vector":"1"}},{"base_weights":[8.238841E-3,-1.634268E-3,3.7146274E-2,3.3756368E-2,-1.0888108E-2,-8.437555E-3,3.8403865E-2,2.8502433E-2,-3.9062358E-3],"categories":[],"categories_nodes":[],"categories_segments":[],"categories_sizes":[],"default_left":[0,0,0,0,0,0,0,0,0],"id":57,"left_children":[1,3,-1,-1,5,-1,7,-1,-1],"loss_changes":[3.712275E-1,3.2261276E-1,0E0,0E0,3.6503565E-1,0E0,1.1663587E0,0E0,0E0],"parents":[2147483647,0,0,1,1,4,4,6,6],"right_children":[2,4,-1,-1,6,-1,8,-1,-1],"split_conditions":[9E0,2E0,3.7146274E-2,3.3756368E-2,3E0,-8.437555E-3,5E0,2.8502433E-2,-3.9062358E-3],"split_indices":[0,0,0,0,0,0,0,0,0],"split_type":[0,0,0,0,0,0,0,0,0],"sum_hessian":[1.02347755E2,1.0060853E2,1.7392282E0,1.7296665E0,9.887886E1,3.9410927E1,5.9467934E1,1.3574141E1,4.589379E1],"tree_param":{"num_deleted":"0","num_feature":"2","num_nodes":"9","size_leaf_vector":"1"}},{"base_weights":[-1.2870373E-2,3.0693837E-2,-1.0844713E-1,-6.4747143E-3,1.8052375E-2,-3.8072962E-2,-4.4048987E-3,4.8706736E-3,-1.6867852E-1,-3.4758765E-2,-7.7671455E-3],"categories":[],"categories_nodes":[],"categories_segments":[],"categories_sizes":[],"default_left":[0,0,0,0,0,0,0,0,0,0,0],"id":58,"left_children":[1,3,5,7,-1,-1,-1,-1,9,-1,-1],"loss_changes":[2.849753E-1,2.6426733E-1,3.5845312E-1,3.5566857E-1,0E0,0E0,0E0,0E0,1.3709033E-1,0E0,0E0],"parents":[2147483647,0,0,1,1,2,2,3,3,8,8],"right_children":[2,4,6,8,-1,-1,-1,-1,10,-1,-1],"split_conditions":[6E0,5E0,8E0,3E0,1.8052375E-2,-3.8072962E-2,-4.4048987E-3,4.8706736E-3,4E0,-3.4758765E-2,-7.7671455E-3],"split_indices":[0,0,0,0,0,0,0,0,0,0,0],"split_type":[0,0,0,0,0,0,0,0,0,0,0],"sum_hessian":[6.664293E1,4.6243732E1,2.0399193E1,3.7818756E1,8.424975E0,2.9622695E0,1.7436924E1,2.8740881E1,9.077877E0,2.1101754E0,6.967702E0],"tree_param":{"num_deleted":"0","num_feature":"2","num_nodes":"11","size_leaf_vector":"1"}},{"base_weights":[3.5679177E-4,-7.6881535E-2,9.886376E-3,4.724189E-3,-3.5364273E-1,-4.214281E-2,-1.9672105E-1,7.6617682E-3,-3.5016667E-2],"categories":[],"categories_nodes":[],"categories_segments":[],"categories_sizes":[],"default_left":[0,0,0,0,0,0,0,0,0],"id":59,"left_children":[1,3,-1,-1,5,-1,7,-1,-1],"loss_changes":[4.1533485E-1,1.0678883E0,0E0,0E0,1.9129038E-2,0E0,2.2685628E-1,0E0,0E0],"parents":[2147483647,0,0,1,1,4,4,6,6],"right_children":[2,4,-1,-1,6,-1,8,-1,-1],"split_conditions":[8E0,3E0,9.886376E-3,4.724189E-3,5E0,-4.214281E-2,6E0,7.6617682E-3,-3.5016667E-2],"split_indices":[0,0,0,0,0,0,0,0,0],"split_type":[0,0,0,0,0,0,0,0,0],"sum_hessian":[5.2589195E1,2.959981E1,2.2989386E1,2.1007536E1,8.592274E0,4.823204E0,3.7690697E0,1.5351435E0,2.2339263E0],"tree_param":{"num_deleted":"0","num_feature":"2","num_nodes":"9","size_leaf_vector":"1"}},{"base_weights":[8.234551E-3,-1.4044136E-3,3.6634613E-2,3.338201E-2,-1.0451264E-2,-7.7521554E-3,3.528882E-2,2.7300237E-2,-3.629686E-3],"categories":[],"categories_nodes":[],"categories_segments":[],"categories_sizes":[],"default_left":[0,0,0,0,0,0,0,0,0],"id":60,"left_children":[1,3,-1,-1,5,-1,7,-1,-1],"loss_changes":[3.5523736E-1,3.0999595E-1,0E0,0E0,3.076147E-1,0E0,1.0270555E0,0E0,0E0],"parents":[2147483647,0,0,1,1,4,4,6,6],"right_children":[2,4,-1,-1,6,-1,8,-1,-1],"split_conditions":[9E0,2E0,3.6634613E-2,3.338201E-2,3E0,-7.7521554E-3,5E0,2.7300237E-2,-3.629686E-3],"split_indices":[0,0,0,0,0,0,0,0,0],"split_type":[0,0,0,0,0,0,0,0,0],"sum_hessian":[1.0176386E2,1.00066536E2,1.697322E0,1.6862094E0,9.8380325E1,3.960755E1,5.8772778E1,1.29514475E1,4.5821327E1],"tree_param":{"num_deleted":"0","num_feature":"2","num_nodes":"9","size_leaf_vector":"1"}},{"base_weights":[-1.2285254E-2,2.9800333E-2,-1.0496402E-1,-5.4821824E-3,1.715774E-2,-3.7735056E-2,-4.189758E-3,4.3604686E-3,-1.557674E-1,-3.4040775E-2,-6.4404435E-3],"categories":[],"categories_nodes":[],"categories_segments":[],"categories_sizes":[],"default_left":[0,0,0,0,0,0,0,0,0,0,0],"id":61,"left_children":[1,3,5,7,-1,-1,-1,-1,9,-1,-1],"loss_changes":[2.655923E-1,2.3632419E-1,3.4898186E-1,2.9189855E-1,0E0,0E0,0E0,0E0,1.4228347E-1,0E0,0E0],"parents":[2147483647,0,0,1,1,2,2,3,3,8,8],"right_children":[2,4,6,8,-1,-1,-1,-1,10,-1,-1],"split_conditions":[6E0,5E0,8E0,3E0,1.715774E-2,-3.7735056E-2,-4.189758E-3,4.3604686E-3,4E0,-3.4040775E-2,-6.4404435E-3],"split_indices":[0,0,0,0,0,0,0,0,0,0,0],"split_type":[0,0,0,0,0,0,0,0,0,0,0],"sum_hessian":[6.629096E1,4.6055527E1,2.023544E1,3.764785E1,8.407678E0,2.8674448E0,1.7367994E1,2.8913755E1,8.734094E0,1.9888452E0,6.745249E0],"tree_param":{"num_deleted":"0","num_feature":"2","num_nodes":"11","size_leaf_vector":"1"}},{"base_weights":[-3.6471387E-4,-7.4104E-2,9.222975E-3,4.2763767E-3,-3.4692723E-1,-4.1599516E-2,-1.9220135E-1,7.6996717E-3,-3.4679364E-2],"categories":[],"categories_nodes":[],"categories_segments":[],"categories_sizes":[],"default_left":[0,0,0,0,0,0,0,0,0],"id":62,"left_children":[1,3,-1,-1,5,-1,7,-1,-1],"loss_changes":[3.7234852E-1,9.826839E-1,0E0,0E0,1.8502712E-2,0E0,2.2238974E-1,0E0,0E0],"parents":[2147483647,0,0,1,1,4,4,6,6],"right_children":[2,4,-1,-1,6,-1,8,-1,-1],"split_conditions":[8E0,3E0,9.222975E-3,4.2763767E-3,5E0,-4.1599516E-2,6E0,7.6996717E-3,-3.4679364E-2],"split_indices":[0,0,0,0,0,0,0,0,0],"split_type":[0,0,0,0,0,0,0,0,0],"sum_hessian":[5.253281E1,2.9355062E1,2.3177748E1,2.1141886E1,8.213178E0,4.510946E0,3.7022316E0,1.5336167E0,2.1686149E0],"tree_param":{"num_deleted":"0","num_feature":"2","num_nodes":"9","size_leaf_vector":"1"}},{"base_weights":[8.228473E-3,-1.180557E-3,3.613099E-2,3.3005822E-2,-1.0021329E-2,-7.130609E-3,3.2421414E-2,2.6114447E-2,-3.374793E-3],"categories":[],"categories_nodes":[],"categories_segments":[],"categories_sizes":[],"default_left":[0,0,0,0,0,0,0,0,0],"id":63,"left_children":[1,3,-1,-1,5,-1,7,-1,-1],"loss_changes":[3.3999112E-1,2.9777598E-1,0E0,0E0,2.59592E-1,0E0,9.036718E-1,0E0,0E0],"parents":[2147483647,0,0,1,1,4,4,6,6],"right_children":[2,4,-1,-1,6,-1,8,-1,-1],"split_conditions":[9E0,2E0,3.613099E-2,3.3005822E-2,3E0,-7.130609E-3,5E0,2.6114447E-2,-3.374793E-3],"split_indices":[0,0,0,0,0,0,0,0,0],"split_type":[0,0,0,0,0,0,0,0,0],"sum_hessian":[1.0121217E2,9.955583E1,1.6563402E0,1.643536E0,9.79123E1,3.978504E1,5.8127254E1,1.2381695E1,4.574556E1],"tree_param":{"num_deleted":"0","num_feature":"2","num_nodes":"9","size_leaf_vector":"1"}},{"base_weights":[-1.1721419E-2,2.8917635E-2,-1.01555474E-1,-4.5786677E-3,1.631467E-2,-3.73934E-2,-3.981385E-3,3.9025273E-3,-1.432571E-1,-3.333392E-2,-5.176683E-3],"categories":[],"categories_nodes":[],"categories_segments":[],"categories_sizes":[],"default_left":[0,0,0,0,0,0,0,0,0,0,0],"id":64,"left_children":[1,3,5,7,-1,-1,-1,-1,9,-1,-1],"loss_changes":[2.4738356E-1,2.1152946E-1,3.3956987E-1,2.3834065E-1,0E0,0E0,0E0,0E0,1.4658973E-1,0E0,0E0],"parents":[2147483647,0,0,1,1,2,2,3,3,8,8],"right_children":[2,4,6,8,-1,-1,-1,-1,10,-1,-1],"split_conditions":[6E0,5E0,8E0,3E0,1.631467E-2,-3.73934E-2,-3.981385E-3,3.9025273E-3,4E0,-3.333392E-2,-5.176683E-3],"split_indices":[0,0,0,0,0,0,0,0,0,0,0],"split_type":[0,0,0,0,0,0,0,0,0,0,0],"sum_hessian":[6.595759E1,4.5880367E1,2.0077225E1,3.7490627E1,8.38974E0,2.7756724E0,1.7301552E1,2.9069155E1,8.421473E0,1.8774353E0,6.544037E0],"tree_param":{"num_deleted":"0","num_feature":"2","num_nodes":"11","size_leaf_vector":"1"}},{"base_weights":[-1.0512114E-3,-7.147478E-2,8.611092E-3,3.872875E-3,-3.4024966E-1,-4.1051127E-2,-1.877295E-1,7.726247E-3,-3.433937E-2],"categories":[],"categories_nodes":[],"categories_segments":[],"categories_sizes":[],"default_left":[0,0,0,0,0,0,0,0,0],"id":65,"left_children":[1,3,-1,-1,5,-1,7,-1,-1],"loss_changes":[3.3442447E-1,9.055162E-1,0E0,0E0,1.7909765E-2,0E0,2.1783914E-1,0E0,0E0],"parents":[2147483647,0,0,1,1,4,4,6,6],"right_children":[2,4,-1,-1,6,-1,8,-1,-1],"split_conditions":[8E0,3E0,8.611092E-3,3.872875E-3,5E0,-4.1051127E-2,6E0,7.726247E-3,-3.433937E-2],"split_indices":[0,0,0,0,0,0,0,0,0],"split_type":[0,0,0,0,0,0,0,0,0],"sum_hessian":[5.2479202E1,2.9126286E1,2.3352915E1,2.126364E1,7.8626475E0,4.2248573E0,3.6377902E0,1.5325472E0,2.1052432E0],"tree_param":{"num_deleted":"0","num_feature":"2","num_nodes":"9","size_leaf_vector":"1"}},{"base_weights":[8.220662E-3,-9.6282415E-4,3.5635263E-2,3.2628443E-2,-9.599079E-3,-6.5661366E-3,2.9785551E-2,2.4948174E-2,-3.139608E-3],"categories":[],"categories_nodes":[],"categories_segments":[],"categories_sizes":[],"default_left":[0,0,0,0,0,0,0,0,0],"id":66,"left_children":[1,3,-1,-1,5,-1,7,-1,-1],"loss_changes":[3.2545692E-1,2.859632E-1,0E0,0E0,2.1938409E-1,0E0,7.9452705E-1,0E0,0E0],"parents":[2147483647,0,0,1,1,4,4,6,6],"right_children":[2,4,-1,-1,6,-1,8,-1,-1],"split_conditions":[9E0,2E0,3.5635263E-2,3.2628443E-2,3E0,-6.5661366E-3,5E0,2.4948174E-2,-3.139608E-3],"split_indices":[0,0,0,0,0,0,0,0,0],"split_type":[0,0,0,0,0,0,0,0,0],"sum_hessian":[1.0069134E2,9.9075035E1,1.6162983E0,1.6017133E0,9.747332E1,3.9945496E1,5.752783E1,1.1860481E1,4.5667347E1],"tree_param":{"num_deleted":"0","num_feature":"2","num_nodes":"9","size_leaf_vector":"1"}},{"base_weights":[-1.1179303E-2,2.8047144E-2,-9.8224774E-2,-3.757783E-3,1.5519506E-2,-3.704828E-2,-3.779905E-3,3.491018E-3,-1.3118611E-1,-3.263935E-2,-3.9788024E-3],"categories":[],"categories_nodes":[],"categories_segments":[],"categories_sizes":[],"default_left":[0,0,0,0,0,0,0,0,0,0,0],"id":67,"left_children":[1,3,5,7,-1,-1,-1,-1,9,-1,-1],"loss_changes":[2.3030335E-1,1.895058E-1,3.3023357E-1,1.9352657E-1,0E0,0E0,0E0,0E0,1.5003824E-1,0E0,0E0],"parents":[2147483647,0,0,1,1,2,2,3,3,8,8],"right_children":[2,4,6,8,-1,-1,-1,-1,10,-1,-1],"split_conditions":[6E0,5E0,8E0,3E0,1.5519506E-2,-3.704828E-2,-3.779905E-3,3.491018E-3,4E0,-3.263935E-2,-3.9788024E-3],"split_indices":[0,0,0,0,0,0,0,0,0,0,0],"split_type":[0,0,0,0,0,0,0,0,0,0,0],"sum_hessian":[6.5642105E1,4.571758E1,1.9924528E1,3.7346203E1,8.371377E0,2.6869268E0,1.72376E1,2.9208853E1,8.137349E0,1.7750623E0,6.3622866E0],"tree_param":{"num_deleted":"0","num_feature":"2","num_nodes":"11","size_leaf_vector":"1"}},{"base_weights":[-1.70236E-3,-6.8985E-2,8.04601E-3,3.5087317E-3,-3.336202E-1,-4.0498417E-2,-1.8331164E-1,7.741999E-3,-3.399704E-2],"categories":[],"categories_nodes":[],"categories_segments":[],"categories_sizes":[],"default_left":[0,0,0,0,0,0,0,0,0],"id":68,"left_children":[1,3,-1,-1,5,-1,7,-1,-1],"loss_changes":[3.009072E-1,8.3552694E-1,0E0,0E0,1.7348647E-2,0E0,2.1321972E-1,0E0,0E0],"parents":[2147483647,0,0,1,1,4,4,6,6],"right_children":[2,4,-1,-1,6,-1,8,-1,-1],"split_conditions":[8E0,3E0,8.04601E-3,3.5087317E-3,5E0,-4.0498417E-2,6E0,7.741999E-3,-3.399704E-2],"split_indices":[0,0,0,0,0,0,0,0,0],"split_type":[0,0,0,0,0,0,0,0,0],"sum_hessian":[5.2428173E1,2.8912323E1,2.351585E1,2.1374031E1,7.538291E0,3.9625747E0,3.5757163E0,1.5319135E0,2.0438027E0],"tree_param":{"num_deleted":"0","num_feature":"2","num_nodes":"9","size_leaf_vector":"1"}},{"base_weights":[8.210496E-3,-7.5199566E-4,3.514726E-2,3.225049E-2,-9.185898E-3,-6.0528535E-3,2.7364952E-2,2.3804564E-2,-2.922526E-3],"categories":[],"categories_nodes":[],"categories_segments":[],"categories_sizes":[],"default_left":[0,0,0,0,0,0,0,0,0],"id":69,"left_children":[1,3,-1,-1,5,-1,7,-1,-1],"loss_changes":[3.1160387E-1,2.745653E-1,0E0,0E0,1.8568084E-1,0E0,6.9811505E-1,0E0,0E0],"parents":[2147483647,0,0,1,1,4,4,6,6],"right_children":[2,4,-1,-1,6,-1,8,-1,-1],"split_conditions":[9E0,2E0,3.514726E-2,3.225049E-2,3E0,-6.0528535E-3,5E0,2.3804564E-2,-2.922526E-3],"split_indices":[0,0,0,0,0,0,0,0,0],"split_type":[0,0,0,0,0,0,0,0,0],"sum_hessian":[1.0019981E2,9.8622604E1,1.5772033E0,1.5607985E0,9.7061806E1,4.009073E1,5.6971077E1,1.1383769E1,4.558731E1],"tree_param":{"num_deleted":"0","num_feature":"2","num_nodes":"9","size_leaf_vector":"1"}},{"base_weights":[-1.0659254E-2,2.7189972E-2,-9.49746E-2,-3.0137375E-3,1.4768972E-2,-3.669999E-2,-3.585408E-3,3.1208328E-3,-1.1958782E-1,-3.195812E-2,-2.8490217E-3],"categories":[],"categories_nodes":[],"categories_segments":[],"categories_sizes":[],"default_left":[0,0,0,0,0,0,0,0,0,0,0],"id":70,"left_children":[1,3,5,7,-1,-1,-1,-1,9,-1,-1],"loss_changes":[2.1430337E-1,1.6992566E-1,3.2098806E-1,1.5618217E-1,0E0,0E0,0E0,0E0,1.5266588E-1,0E0,0E0],"parents":[2147483647,0,0,1,1,2,2,3,3,8,8],"right_children":[2,4,6,8,-1,-1,-1,-1,10,-1,-1],"split_conditions":[6E0,5E0,8E0,3E0,1.4768972E-2,-3.669999E-2,-3.585408E-3,3.1208328E-3,4E0,-3.195812E-2,-2.8490217E-3],"split_indices":[0,0,0,0,0,0,0,0,0,0,0],"split_type":[0,0,0,0,0,0,0,0,0,0,0],"sum_hessian":[6.53438E1,4.5566486E1,1.9777313E1,3.721372E1,8.352768E0,2.6011667E0,1.7176146E1,2.9334442E1,7.879277E0,1.6809163E0,6.198361E0],"tree_param":{"num_deleted":"0","num_feature":"2","num_nodes":"11","size_leaf_vector":"1"}},{"base_weights":[-2.318031E-3,-6.662608E-2,7.5235353E-3,3.179663E-3,-3.2704878E-1,-3.994226E-2,-1.7895348E-1,7.747438E-3,-3.365272E-2],"categories":[],"categories_nodes":[],"categories_segments":[],"categories_sizes":[],"default_left":[0,0,0,0,0,0,0,0,0],"id":71,"left_children":[1,3,-1,-1,5,-1,7,-1,-1],"loss_changes":[2.7123266E-1,7.719643E-1,0E0,0E0,1.6817808E-2,0E0,2.0854591E-1,0E0,0E0],"parents":[2147483647,0,0,1,1,4,4,6,6],"right_children":[2,4,-1,-1,6,-1,8,-1,-1],"split_conditions":[8E0,3E0,7.5235353E-3,3.179663E-3,5E0,-3.994226E-2,6E0,7.747438E-3,-3.365272E-2],"split_indices":[0,0,0,0,0,0,0,0,0],"split_type":[0,0,0,0,0,0,0,0,0],"sum_hessian":[5.2379517E1,2.8712076E1,2.3667442E1,2.1474155E1,7.23792E0,3.7219472E0,3.5159724E0,1.5316949E0,1.9842775E0],"tree_param":{"num_deleted":"0","num_feature":"2","num_nodes":"9","size_leaf_vector":"1"}},{"base_weights":[8.198146E-3,-5.480285E-4,3.466685E-2,3.187246E-2,-8.782207E-3,-5.585535E-3,2.5144966E-2,2.2686627E-2,-2.7219655E-3],"categories":[],"categories_nodes":[],"categories_segments":[],"categories_sizes":[],"default_left":[0,0,0,0,0,0,0,0,0],"id":72,"left_children":[1,3,-1,-1,5,-1,7,-1,-1],"loss_changes":[2.984013E-1,2.6358303E-1,0E0,0E0,1.5739919E-1,0E0,6.130641E-1,0E0,0E0],"parents":[2147483647,0,0,1,1,4,4,6,6],"right_children":[2,4,-1,-1,6,-1,8,-1,-1],"split_conditions":[9E0,2E0,3.466685E-2,3.187246E-2,3E0,-5.585535E-3,5E0,2.2686627E-2,-2.7219655E-3],"split_indices":[0,0,0,0,0,0,0,0,0],"split_type":[0,0,0,0,0,0,0,0,0],"sum_hessian":[9.973615E1,9.819709E1,1.5390611E0,1.5208297E0,9.667626E1,4.0222366E1,5.64539E1,1.0947814E1,4.5506084E1],"tree_param":{"num_deleted":"0","num_feature":"2","num_nodes":"9","size_leaf_vector":"1"}},{"base_weights":[-1.0161195E-2,2.6347376E-2,-9.180692E-2,-2.3406087E-3,1.4060042E-2,-3.6348835E-2,-3.3979106E-3,2.7875602E-3,-1.08490005E-1,-3.129115E-2,-1.7887965E-3],"categories":[],"categories_nodes":[],"categories_segments":[],"categories_sizes":[],"default_left":[0,0,0,0,0,0,0,0,0,0,0],"id":73,"left_children":[1,3,5,7,-1,-1,-1,-1,9,-1,-1],"loss_changes":[1.9933414E-1,1.5250042E-1,3.1184804E-1,1.2520283E-1,0E0,0E0,0E0,0E0,1.545169E-1,0E0,0E0],"parents":[2147483647,0,0,1,1,2,2,3,3,8,8],"right_children":[2,4,6,8,-1,-1,-1,-1,10,-1,-1],"split_conditions":[6E0,5E0,8E0,3E0,1.4060042E-2,-3.6348835E-2,-3.3979106E-3,2.7875602E-3,4E0,-3.129115E-2,-1.7887965E-3],"split_indices":[0,0,0,0,0,0,0,0,0,0,0],"split_type":[0,0,0,0,0,0,0,0,0,0,0],"sum_hessian":[6.5061905E1,4.5426407E1,1.9635502E1,3.7092342E1,8.334064E0,2.5183437E0,1.7117159E1,2.9447332E1,7.6450086E0,1.5942591E0,6.0507493E0],"tree_param":{"num_deleted":"0","num_feature":"2","num_nodes":"11","size_leaf_vector":"1"}},{"base_weights":[-2.898372E-3,-6.438986E-2,7.0399246E-3,2.8819118E-3,-3.2054475E-1,-3.9383575E-2,-1.746602E-1,7.7431053E-3,-3.330675E-2],"categories":[],"categories_nodes":[],"categories_segments":[],"categories_sizes":[],"default_left":[0,0,0,0,0,0,0,0,0],"id":74,"left_children":[1,3,-1,-1,5,-1,7,-1,-1],"loss_changes":[2.4491458E-1,7.141633E-1,0E0,0E0,1.6315997E-2,0E0,2.0383199E-1,0E0,0E0],"parents":[2147483647,0,0,1,1,4,4,6,6],"right_children":[2,4,-1,-1,6,-1,8,-1,-1],"split_conditions":[8E0,3E0,7.0399246E-3,2.8819118E-3,5E0,-3.9383575E-2,6E0,7.7431053E-3,-3.330675E-2],"split_indices":[0,0,0,0,0,0,0,0,0],"split_type":[0,0,0,0,0,0,0,0,0],"sum_hessian":[5.2333035E1,2.8524519E1,2.3808516E1,2.1564997E1,6.9595222E0,3.5010085E0,3.4585137E0,1.531869E0,1.9266448E0],"tree_param":{"num_deleted":"0","num_feature":"2","num_nodes":"9","size_leaf_vector":"1"}},{"base_weights":[8.183041E-3,-3.5161013E-4,3.4193885E-2,3.149486E-2,-8.3891405E-3,-5.1596276E-3,2.3110725E-2,2.1597119E-2,-2.5365893E-3],"categories":[],"categories_nodes":[],"categories_segments":[],"categories_sizes":[],"default_left":[0,0,0,0,0,0,0,0,0],"id":75,"left_children":[1,3,-1,-1,5,-1,7,-1,-1],"loss_changes":[2.8582034E-1,2.530168E-1,0E0,0E0,1.3364011E-1,0E0,5.381342E-1,0E0,0E0],"parents":[2147483647,0,0,1,1,4,4,6,6],"right_children":[2,4,-1,-1,6,-1,8,-1,-1],"split_conditions":[9E0,2E0,3.4193885E-2,3.149486E-2,3E0,-5.1596276E-3,5E0,2.1597119E-2,-2.5365893E-3],"split_indices":[0,0,0,0,0,0,0,0,0],"split_type":[0,0,0,0,0,0,0,0,0],"sum_hessian":[9.929881E1,9.7796936E1,1.5018722E0,1.4818401E0,9.63151E1,4.034182E1,5.597328E1,1.0549149E1,4.5424133E1],"tree_param":{"num_deleted":"0","num_feature":"2","num_nodes":"9","size_leaf_vector":"1"}},{"base_weights":[-9.685135E-3,2.5520202E-2,-8.872334E-2,-1.7332349E-3,1.339E-2,-3.5995103E-2,-3.2174126E-3,2.4872823E-3,-9.7914815E-2,-3.0639226E-2,-7.988789E-4],"categories":[],"categories_nodes":[],"categories_segments":[],"categories_sizes":[],"default_left":[0,0,0,0,0,0,0,0,0,0,0],"id":76,"left_children":[1,3,5,7,-1,-1,-1,-1,9,-1,-1],"loss_changes":[1.8534508E-1,1.3697958E-1,3.0282676E-1,9.963E-2,0E0,0E0,0E0,0E0,1.556407E-1,0E0,0E0],"parents":[2147483647,0,0,1,1,2,2,3,3,8,8],"right_children":[2,4,6,8,-1,-1,-1,-1,10,-1,-1],"split_conditions":[6E0,5E0,8E0,3E0,1.339E-2,-3.5995103E-2,-3.2174126E-3,2.4872823E-3,4E0,-3.0639226E-2,-7.988789E-4],"split_indices":[0,0,0,0,0,0,0,0,0,0,0],"split_type":[0,0,0,0,0,0,0,0,0,0,0],"sum_hessian":[6.479568E1,4.529667E1,1.9499008E1,3.6981277E1,8.315391E0,2.438402E0,1.7060606E1,2.9548794E1,7.432485E0,1.5144181E0,5.918067E0],"tree_param":{"num_deleted":"0","num_feature":"2","num_nodes":"11","size_leaf_vector":"1"}},{"base_weights":[-3.4436132E-3,-6.2268466E-2,6.591838E-3,2.6122043E-3,-3.141168E-1,-3.882331E-2,-1.7043649E-1,7.7295527E-3,-3.295947E-2],"categories":[],"categories_nodes":[],"categories_segments":[],"categories_sizes":[],"default_left":[0,0,0,0,0,0,0,0,0],"id":77,"left_children":[1,3,-1,-1,5,-1,7,-1,-1],"loss_changes":[2.2153291E-1,6.615367E-1,0E0,0E0,1.584202E-2,0E0,1.990917E-1,0E0,0E0],"parents":[2147483647,0,0,1,1,4,4,6,6],"right_children":[2,4,-1,-1,6,-1,8,-1,-1],"split_conditions":[8E0,3E0,6.591838E-3,2.6122043E-3,5E0,-3.882331E-2,6E0,7.7295527E-3,-3.295947E-2],"split_indices":[0,0,0,0,0,0,0,0,0],"split_type":[0,0,0,0,0,0,0,0,0],"sum_hessian":[5.2288517E1,2.834869E1,2.3939827E1,2.164743E1,6.701259E0,3.2979684E0,3.403291E0,1.5324141E0,1.8708768E0],"tree_param":{"num_deleted":"0","num_feature":"2","num_nodes":"9","size_leaf_vector":"1"}},{"base_weights":[8.165196E-3,-1.6280275E-4,3.3728223E-2,3.1118114E-2,-8.007094E-3,-4.7710384E-3,2.1248607E-2,2.0538574E-2,-2.3651265E-3],"categories":[],"categories_nodes":[],"categories_segments":[],"categories_sizes":[],"default_left":[0,0,0,0,0,0,0,0,0],"id":78,"left_children":[1,3,-1,-1,5,-1,7,-1,-1],"loss_changes":[2.7383196E-1,2.4286179E-1,0E0,0E0,1.1365699E-1,0E0,4.7220364E-1,0E0,0E0],"parents":[2147483647,0,0,1,1,4,4,6,6],"right_children":[2,4,-1,-1,6,-1,8,-1,-1],"split_conditions":[9E0,2E0,3.3728223E-2,3.1118114E-2,3E0,-4.7710384E-3,5E0,2.0538574E-2,-2.3651265E-3],"split_indices":[0,0,0,0,0,0,0,0,0],"split_type":[0,0,0,0,0,0,0,0,0],"sum_hessian":[9.888632E1,9.742069E1,1.4656339E0,1.4438485E0,9.5976845E1,4.0450348E1,5.5526493E1,1.0184584E1,4.534191E1],"tree_param":{"num_deleted":"0","num_feature":"2","num_nodes":"9","size_leaf_vector":"1"}},{"base_weights":[-9.23088E-3,2.4709187E-2,-8.5724816E-2,-1.1867068E-3,1.2756354E-2,-3.5639074E-2,-3.0438618E-3,2.2165542E-3,-8.787858E-2,-3.0002981E-2,1.2064323E-4],"categories":[],"categories_nodes":[],"categories_segments":[],"categories_sizes":[],"default_left":[0,0,0,0,0,0,0,0,0,0,0],"id":79,"left_children":[1,3,5,7,-1,-1,-1,-1,9,-1,-1],"loss_changes":[1.7228505E-1,1.2314309E-1,2.939363E-1,7.863361E-2,0E0,0E0,0E0,0E0,1.5609038E-1,0E0,0E0],"parents":[2147483647,0,0,1,1,2,2,3,3,8,8],"right_children":[2,4,6,8,-1,-1,-1,-1,10,-1,-1],"split_conditions":[6E0,5E0,8E0,3E0,1.2756354E-2,-3.5639074E-2,-3.0438618E-3,2.2165542E-3,4E0,-3.0002981E-2,1.2064323E-4],"split_indices":[0,0,0,0,0,0,0,0,0,0,0],"split_type":[0,0,0,0,0,0,0,0,0,0,0],"sum_hessian":[6.454436E1,4.5176636E1,1.9367722E1,3.6879784E1,8.296852E0,2.3612769E0,1.7006445E1,2.9639963E1,7.2398195E0,1.4407779E0,5.7990413E0],"tree_param":{"num_deleted":"0","num_feature":"2","num_nodes":"11","size_leaf_vector":"1"}},{"base_weights":[-3.9543645E-3,-6.0254607E-2,6.176262E-3,2.3676304E-3,-3.07773E-1,-3.8262438E-2,-1.6628633E-1,7.7072964E-3,-3.2611173E-2],"categories":[],"categories_nodes":[],"categories_segments":[],"categories_sizes":[],"default_left":[0,0,0,0,0,0,0,0,0],"id":80,"left_children":[1,3,-1,-1,5,-1,7,-1,-1],"loss_changes":[2.0072465E-1,6.135623E-1,0E0,0E0,1.5395045E-2,0E0,1.9433722E-1,0E0,0E0],"parents":[2147483647,0,0,1,1,4,4,6,6],"right_children":[2,4,-1,-1,6,-1,8,-1,-1],"split_conditions":[8E0,3E0,6.176262E-3,2.3676304E-3,5E0,-3.8262438E-2,6E0,7.7072964E-3,-3.2611173E-2],"split_indices":[0,0,0,0,0,0,0,0,0],"split_type":[0,0,0,0,0,0,0,0,0],"sum_hessian":[5.2245796E1,2.8183712E1,2.4062082E1,2.1722263E1,6.461448E0,3.1112003E0,3.3502479E0,1.5333097E0,1.8169382E0],"tree_param":{"num_deleted":"0","num_feature":"2","num_nodes":"9","size_leaf_vector":"1"}},{"base_weights":[8.144328E-3,1.804789E-5,3.326974E-2,3.0742591E-2,-7.6366947E-3,1.5970256E-2,-5.099083E-3,-1.7525532E-3,4.1017566E-2],"categories":[],"categories_nodes":[],"categories_segments":[],"categories_sizes":[],"default_left":[0,0,0,0,0,0,0,0,0],"id":81,"left_children":[1,3,-1,-1,5,7,-1,-1,-1],"loss_changes":[2.624089E-1,2.3311166E-1,0E0,0E0,9.974189E-2,8.4360045E-1,0E0,0E0,0E0],"parents":[2147483647,0,0,1,1,4,4,5,5],"right_children":[2,4,-1,-1,6,8,-1,-1,-1],"split_conditions":[9E0,2E0,3.326974E-2,3.0742591E-2,8E0,6E0,-5.099083E-3,-1.7525532E-3,4.1017566E-2],"split_indices":[0,0,0,0,0,0,0,0,0],"split_type":[0,0,0,0,0,0,0,0,0],"sum_hessian":[9.849723E1,9.706689E1,1.4303415E0,1.4068658E0,9.566002E1,6.2344288E1,3.3315735E1,5.834245E1,4.0018387E0],"tree_param":{"num_deleted":"0","num_feature":"2","num_nodes":"9","size_leaf_vector":"1"}},{"base_weights":[-8.798105E-3,2.3915106E-2,-8.2812175E-2,-6.9619366E-4,1.21567985E-2,-3.528105E-2,-2.877204E-3,1.9723566E-3,-7.83918E-2,-2.9382924E-2,9.7035366E-4],"categories":[],"categories_nodes":[],"categories_segments":[],"categories_sizes":[],"default_left":[0,0,0,0,0,0,0,0,0,0,0],"id":82,"left_children":[1,3,5,7,-1,-1,-1,-1,9,-1,-1],"loss_changes":[1.6010474E-1,1.1079723E-1,2.8518796E-1,6.149643E-2,0E0,0E0,0E0,0E0,1.5592238E-1,0E0,0E0],"parents":[2147483647,0,0,1,1,2,2,3,3,8,8],"right_children":[2,4,6,8,-1,-1,-1,-1,10,-1,-1],"split_conditions":[6E0,5E0,8E0,3E0,1.21567985E-2,-3.528105E-2,-2.877204E-3,1.9723566E-3,4E0,-2.9382924E-2,9.7035366E-4],"split_indices":[0,0,0,0,0,0,0,0,0,0,0],"split_type":[0,0,0,0,0,0,0,0,0,0,0],"sum_hessian":[6.4307205E1,4.5065674E1,1.924153E1,3.678714E1,8.278534E0,2.286903E0,1.6954626E1,2.9721859E1,7.06528E0,1.3727819E0,5.6924977E0],"tree_param":{"num_deleted":"0","num_feature":"2","num_nodes":"11","size_leaf_vector":"1"}},{"base_weights":[-4.4311336E-3,-5.8341086E-2,5.7904967E-3,2.145672E-3,-3.0152047E-1,-3.77019E-2,-1.6221361E-1,7.6768957E-3,-3.2262187E-2],"categories":[],"categories_nodes":[],"categories_segments":[],"categories_sizes":[],"default_left":[0,0,0,0,0,0,0,0,0],"id":83,"left_children":[1,3,-1,-1,5,-1,7,-1,-1],"loss_changes":[1.8217449E-1,5.697777E-1,0E0,0E0,1.4973521E-2,0E0,1.8958111E-1,0E0,0E0],"parents":[2147483647,0,0,1,1,4,4,6,6],"right_children":[2,4,-1,-1,6,-1,8,-1,-1],"split_conditions":[8E0,3E0,5.7904967E-3,2.145672E-3,5E0,-3.77019E-2,6E0,7.6768957E-3,-3.2262187E-2],"split_indices":[0,0,0,0,0,0,0,0,0],"split_type":[0,0,0,0,0,0,0,0,0],"sum_hessian":[5.220468E1,2.8028748E1,2.4175932E1,2.1790195E1,6.238551E0,2.9392228E0,3.2993283E0,1.534534E0,1.7647943E0],"tree_param":{"num_deleted":"0","num_feature":"2","num_nodes":"9","size_leaf_vector":"1"}},{"base_weights":[8.245618E-3,3.2101644E-4,3.2818317E-2,3.0368686E-2,-7.143255E-3,-4.2255106E-3,1.9162487E-2,1.91501E-2,-2.1420969E-3],"categories":[],"categories_nodes":[],"categories_segments":[],"categories_sizes":[],"default_left":[0,0,0,0,0,0,0,0,0],"id":84,"left_children":[1,3,-1,-1,5,-1,7,-1,-1],"loss_changes":[2.513254E-1,2.2356692E-1,0E0,0E0,8.9850836E-2,0E0,3.943735E-1,0E0,0E0],"parents":[2147483647,0,0,1,1,4,4,6,6],"right_children":[2,4,-1,-1,6,-1,8,-1,-1],"split_conditions":[9E0,2E0,3.2818317E-2,3.0368686E-2,3E0,-4.2255106E-3,5E0,1.91501E-2,-2.1420969E-3],"split_indices":[0,0,0,0,0,0,0,0,0],"split_type":[0,0,0,0,0,0,0,0,0],"sum_hessian":[9.816896E1,9.677297E1,1.3959872E0,1.3709004E0,9.540207E1,4.0601933E1,5.480014E1,9.73625E0,4.5063892E1],"tree_param":{"num_deleted":"0","num_feature":"2","num_nodes":"9","size_leaf_vector":"1"}},{"base_weights":[-8.5649425E-3,2.2231398E-2,-7.885735E-2,-1.3446467E-3,1.1606484E-2,-3.4445982E-2,-2.818247E-3,1.8591968E-3,-7.7384874E-2,-2.904274E-2,8.35708E-4],"categories":[],"categories_nodes":[],"categories_segments":[],"categories_sizes":[],"default_left":[0,0,0,0,0,0,0,0,0,0,0],"id":85,"left_children":[1,3,5,7,-1,-1,-1,-1,9,-1,-1],"loss_changes":[1.427274E-1,1.0205845E-1,2.6027825E-1,5.874646E-2,0E0,0E0,0E0,0E0,1.4940318E-1,0E0,0E0],"parents":[2147483647,0,0,1,1,2,2,3,3,8,8],"right_children":[2,4,6,8,-1,-1,-1,-1,10,-1,-1],"split_conditions":[6E0,5E0,8E0,3E0,1.1606484E-2,-3.4445982E-2,-2.818247E-3,1.8591968E-3,4E0,-2.904274E-2,8.35708E-4],"split_indices":[0,0,0,0,0,0,0,0,0,0,0],"split_type":[0,0,0,0,0,0,0,0,0,0,0],"sum_hessian":[6.41227E1,4.5063374E1,1.9059328E1,3.6802307E1,8.261065E0,2.124857E0,1.6934471E1,2.975618E1,7.0461283E0,1.3369617E0,5.7091665E0],"tree_param":{"num_deleted":"0","num_feature":"2","num_nodes":"11","size_leaf_vector":"1"}},{"base_weights":[-4.8897844E-3,-5.5616934E-2,5.3076944E-3,2.0423743E-3,-2.9495326E-1,-3.7348885E-2,-1.5228823E-1,7.6449164E-3,-3.140534E-2],"categories":[],"categories_nodes":[],"categories_segments":[],"categories_sizes":[],"default_left":[0,0,0,0,0,0,0,0,0],"id":86,"left_children":[1,3,-1,-1,5,-1,7,-1,-1],"loss_changes":[1.5926251E-1,5.3084886E-1,0E0,0E0,2.1751642E-2,0E0,1.7867953E-1,0E0,0E0],"parents":[2147483647,0,0,1,1,4,4,6,6],"right_children":[2,4,-1,-1,6,-1,8,-1,-1],"split_conditions":[8E0,3E0,5.3076944E-3,2.0423743E-3,5E0,-3.7348885E-2,6E0,7.6449164E-3,-3.140534E-2],"split_indices":[0,0,0,0,0,0,0,0,0],"split_type":[0,0,0,0,0,0,0,0,0],"sum_hessian":[5.215805E1,2.7837643E1,2.4320406E1,2.1819826E1,6.017815E0,2.8377318E0,3.1800833E0,1.5358229E0,1.6442605E0],"tree_param":{"num_deleted":"0","num_feature":"2","num_nodes":"9","size_leaf_vector":"1"}},{"base_weights":[8.211458E-3,4.7864465E-4,3.2372218E-2,2.9998068E-2,-6.805586E-3,1.4355362E-2,-4.5041027E-3,-1.611211E-3,4.0064484E-2],"categories":[],"categories_nodes":[],"categories_segments":[],"categories_sizes":[],"default_left":[0,0,0,0,0,0,0,0,0],"id":87,"left_children":[1,3,-1,-1,5,7,-1,-1,-1],"loss_changes":[2.4093379E-1,2.146493E-1,0E0,0E0,7.841468E-2,7.435883E-1,0E0,0E0,0E0],"parents":[2147483647,0,0,1,1,4,4,5,5],"right_children":[2,4,-1,-1,6,8,-1,-1,-1],"split_conditions":[9E0,2E0,3.2372218E-2,2.9998068E-2,8E0,6E0,-4.5041027E-3,-1.611211E-3,4.0064484E-2],"split_indices":[0,0,0,0,0,0,0,0,0],"split_type":[0,0,0,0,0,0,0,0,0],"sum_hessian":[9.781554E1,9.6453094E1,1.36244E0,1.3360775E0,9.511702E1,6.163205E1,3.348497E1,5.8014603E1,3.6174452E0],"tree_param":{"num_deleted":"0","num_feature":"2","num_nodes":"9","size_leaf_vector":"1"}},{"base_weights":[-8.156483E-3,2.1542726E-2,-7.6180086E-2,-8.660042E-4,1.1065098E-2,-3.4086276E-2,-2.6646515E-3,1.6501157E-3,-6.859722E-2,-2.8446129E-2,1.6063899E-3],"categories":[],"categories_nodes":[],"categories_segments":[],"categories_sizes":[],"default_left":[0,0,0,0,0,0,0,0,0,0,0],"id":88,"left_children":[1,3,5,7,-1,-1,-1,-1,9,-1,-1],"loss_changes":[1.3276926E-1,9.186982E-2,2.5242943E-1,4.5498632E-2,0E0,0E0,0E0,0E0,1.4878644E-1,0E0,0E0],"parents":[2147483647,0,0,1,1,2,2,3,3,8,8],"right_children":[2,4,6,8,-1,-1,-1,-1,10,-1,-1],"split_conditions":[6E0,5E0,8E0,3E0,1.1065098E-2,-3.4086276E-2,-2.6646515E-3,1.6501157E-3,4E0,-2.8446129E-2,1.6063899E-3],"split_indices":[0,0,0,0,0,0,0,0,0,0,0],"split_type":[0,0,0,0,0,0,0,0,0,0,0],"sum_hessian":[6.390697E1,4.496047E1,1.8946505E1,3.6717197E1,8.243272E0,2.059597E0,1.6886908E1,2.982584E1,6.891358E0,1.2765317E0,5.614826E0],"tree_param":{"num_deleted":"0","num_feature":"2","num_nodes":"11","size_leaf_vector":"1"}},{"base_weights":[-5.3090374E-3,-5.3903684E-2,4.977004E-3,1.8501988E-3,-2.8880805E-1,-3.678844E-2,-1.4850275E-1,7.5987936E-3,-3.1059518E-2],"categories":[],"categories_nodes":[],"categories_segments":[],"categories_sizes":[],"default_left":[0,0,0,0,0,0,0,0,0],"id":89,"left_children":[1,3,-1,-1,5,-1,7,-1,-1],"loss_changes":[1.4486034E-1,4.9350458E-1,0E0,0E0,2.106291E-2,0E0,1.741069E-1,0E0,0E0],"parents":[2147483647,0,0,1,1,4,4,6,6],"right_children":[2,4,-1,-1,6,-1,8,-1,-1],"split_conditions":[8E0,3E0,4.977004E-3,1.8501988E-3,5E0,-3.678844E-2,6E0,7.5987936E-3,-3.1059518E-2],"split_indices":[0,0,0,0,0,0,0,0,0],"split_type":[0,0,0,0,0,0,0,0,0],"sum_hessian":[5.2119747E1,2.7701164E1,2.4418581E1,2.1878643E1,5.8225207E0,2.6864204E0,3.1361003E0,1.537684E0,1.5984163E0],"tree_param":{"num_deleted":"0","num_feature":"2","num_nodes":"9","size_leaf_vector":"1"}},{"base_weights":[8.301057E-3,7.596347E-4,3.1933017E-2,2.962949E-2,-6.3441116E-3,-3.7492958E-3,1.734076E-2,3.4139708E-2,-1.3080785E-4],"categories":[],"categories_nodes":[],"categories_segments":[],"categories_sizes":[],"default_left":[0,0,0,0,0,0,0,0,0],"id":90,"left_children":[1,3,-1,-1,5,-1,7,-1,-1],"loss_changes":[2.3084289E-1,2.0591861E-1,0E0,0E0,7.1391076E-2,0E0,3.3375174E-1,0E0,0E0],"parents":[2147483647,0,0,1,1,4,4,6,6],"right_children":[2,4,-1,-1,6,-1,8,-1,-1],"split_conditions":[9E0,2E0,3.1933017E-2,2.962949E-2,3E0,-3.7492958E-3,4E0,3.4139708E-2,-1.3080785E-4],"split_indices":[0,0,0,0,0,0,0,0,0],"split_type":[0,0,0,0,0,0,0,0,0],"sum_hessian":[9.751861E1,9.61888E1,1.3298163E0,1.3022435E0,9.488655E1,4.073347E1,5.4153076E1,2.0050583E0,5.2148018E1],"tree_param":{"num_deleted":"0","num_feature":"2","num_nodes":"9","size_leaf_vector":"1"}},{"base_weights":[-7.9634795E-3,2.001216E-2,-7.254924E-2,-1.4637174E-3,1.0567083E-2,-3.3248242E-2,-2.6049414E-3,1.5537952E-3,-6.786763E-2,-2.811314E-2,1.4506745E-3],"categories":[],"categories_nodes":[],"categories_segments":[],"categories_sizes":[],"default_left":[0,0,0,0,0,0,0,0,0,0,0],"id":91,"left_children":[1,3,5,7,-1,-1,-1,-1,9,-1,-1],"loss_changes":[1.1843033E-1,8.4699824E-2,2.304637E-1,4.3653306E-2,0E0,0E0,0E0,0E0,1.4247036E-1,0E0,0E0],"parents":[2147483647,0,0,1,1,2,2,3,3,8,8],"right_children":[2,4,6,8,-1,-1,-1,-1,10,-1,-1],"split_conditions":[6E0,5E0,8E0,3E0,1.0567083E-2,-3.3248242E-2,-2.6049414E-3,1.5537952E-3,4E0,-2.811314E-2,1.4506745E-3],"split_indices":[0,0,0,0,0,0,0,0,0,0,0],"split_type":[0,0,0,0,0,0,0,0,0,0,0],"sum_hessian":[6.374244E1,4.4958565E1,1.8783876E1,3.673218E1,8.226382E0,1.9171058E0,1.6866772E1,2.9854435E1,6.877746E0,1.244065E0,5.6336813E0],"tree_param":{"num_deleted":"0","num_feature":"2","num_nodes":"11","size_leaf_vector":"1"}},{"base_weights":[-5.69445E-3,-5.1441547E-2,4.5626834E-3,1.76018E-3,-2.8230712E-1,-3.6429733E-2,-1.3916437E-1,7.5512226E-3,-3.020978E-2],"categories":[],"categories_nodes":[],"categories_segments":[],"categories_sizes":[],"default_left":[0,0,0,0,0,0,0,0,0],"id":92,"left_children":[1,3,-1,-1,5,-1,7,-1,-1],"loss_changes":[1.2695578E-1,4.5975024E-1,0E0,0E0,2.7079344E-2,0E0,1.6382949E-1,0E0,0E0],"parents":[2147483647,0,0,1,1,4,4,6,6],"right_children":[2,4,-1,-1,6,-1,8,-1,-1],"split_conditions":[8E0,3E0,4.5626834E-3,1.76018E-3,5E0,-3.6429733E-2,6E0,7.5512226E-3,-3.020978E-2],"split_indices":[0,0,0,0,0,0,0,0,0],"split_type":[0,0,0,0,0,0,0,0,0],"sum_hessian":[5.2074654E1,2.7531292E1,2.4543364E1,2.1904287E1,5.6270046E0,2.5954008E0,3.0316036E0,1.5396063E0,1.4919972E0],"tree_param":{"num_deleted":"0","num_feature":"2","num_nodes":"9","size_leaf_vector":"1"}},{"base_weights":[8.340596E-3,9.869526E-4,3.149921E-2,2.9264426E-2,-5.9404485E-3,1.3582046E-2,-4.079473E-3,-1.4054818E-3,3.9083865E-2],"categories":[],"categories_nodes":[],"categories_segments":[],"categories_sizes":[],"default_left":[0,0,0,0,0,0,0,0,0],"id":93,"left_children":[1,3,-1,-1,5,7,-1,-1,-1],"loss_changes":[2.212666E-1,1.9764367E-1,0E0,0E0,6.566752E-2,6.5282536E-1,0E0,0E0,0E0],"parents":[2147483647,0,0,1,1,4,4,5,5],"right_children":[2,4,-1,-1,6,8,-1,-1,-1],"split_conditions":[9E0,2E0,3.149921E-2,2.9264426E-2,8E0,6E0,-4.079473E-3,-1.4054818E-3,3.9083865E-2],"split_indices":[0,0,0,0,0,0,0,0,0],"split_type":[0,0,0,0,0,0,0,0,0],"sum_hessian":[9.726028E1,9.596228E1,1.2980008E0,1.2694968E0,9.469278E1,6.1087128E1,3.360565E1,5.7814526E1,3.2726014E0],"tree_param":{"num_deleted":"0","num_feature":"2","num_nodes":"9","size_leaf_vector":"1"}},{"base_weights":[-7.886677E-3,1.8649029E-2,-6.948884E-2,-2.0650467E-3,1.0146478E-2,-3.286825E-2,-2.400182E-3,1.3746317E-3,-6.43411E-2,-2.7336696E-2,1.3666158E-3],"categories":[],"categories_nodes":[],"categories_segments":[],"categories_sizes":[],"default_left":[0,0,0,0,0,0,0,0,0,0,0],"id":94,"left_children":[1,3,5,7,-1,-1,-1,-1,9,-1,-1],"loss_changes":[1.0689865E-1,7.901898E-2,2.2391865E-1,3.803524E-2,0E0,0E0,0E0,0E0,1.3117264E-1,0E0,0E0],"parents":[2147483647,0,0,1,1,2,2,3,3,8,8],"right_children":[2,4,6,8,-1,-1,-1,-1,10,-1,-1],"split_conditions":[6E0,5E0,8E0,3E0,1.0146478E-2,-3.286825E-2,-2.400182E-3,1.3746317E-3,4E0,-2.7336696E-2,1.3666158E-3],"split_indices":[0,0,0,0,0,0,0,0,0,0,0],"split_type":[0,0,0,0,0,0,0,0,0,0,0],"sum_hessian":[6.3602398E1,4.4940933E1,1.866146E1,3.6729202E1,8.211733E0,1.8565625E0,1.68049E1,2.9913649E1,6.815554E0,1.1716523E0,5.643902E0],"tree_param":{"num_deleted":"0","num_feature":"2","num_nodes":"11","size_leaf_vector":"1"}},{"base_weights":[-5.846842E-3,-5.0141033E-2,4.3557044E-3,1.5935589E-3,-2.7682078E-1,-3.5949703E-2,-1.353394E-1,7.5152265E-3,-2.9847318E-2],"categories":[],"categories_nodes":[],"categories_segments":[],"categories_sizes":[],"default_left":[0,0,0,0,0,0,0,0,0],"id":95,"left_children":[1,3,-1,-1,5,-1,7,-1,-1],"loss_changes":[1.1822808E-1,4.301737E-1,0E0,0E0,2.702868E-2,0E0,1.594468E-1,0E0,0E0],"parents":[2147483647,0,0,1,1,4,4,6,6],"right_children":[2,4,-1,-1,6,-1,8,-1,-1],"split_conditions":[8E0,3E0,4.3557044E-3,1.5935589E-3,5E0,-3.5949703E-2,6E0,7.5152265E-3,-2.9847318E-2],"split_indices":[0,0,0,0,0,0,0,0,0],"split_type":[0,0,0,0,0,0,0,0,0],"sum_hessian":[5.202921E1,2.7425407E1,2.46038E1,2.1955214E1,5.470194E0,2.480018E0,2.990176E0,1.5410627E0,1.4491132E0],"tree_param":{"num_deleted":"0","num_feature":"2","num_nodes":"9","size_leaf_vector":"1"}},{"base_weights":[8.408995E-3,1.2356661E-3,3.1073123E-2,2.8901858E-2,-5.521554E-3,-3.3368224E-3,1.5907124E-2,3.3027824E-2,-1.2507821E-4],"categories":[],"categories_nodes":[],"categories_segments":[],"categories_sizes":[],"default_left":[0,0,0,0,0,0,0,0,0],"id":96,"left_children":[1,3,-1,-1,5,-1,7,-1,-1],"loss_changes":[2.1212152E-1,1.8968315E-1,0E0,0E0,5.750808E-2,0E0,2.951265E-1,0E0,0E0],"parents":[2147483647,0,0,1,1,4,4,6,6],"right_children":[2,4,-1,-1,6,-1,8,-1,-1],"split_conditions":[9E0,2E0,3.1073123E-2,2.8901858E-2,3E0,-3.3368224E-3,4E0,3.3027824E-2,-1.2507821E-4],"split_indices":[0,0,0,0,0,0,0,0,0],"split_type":[0,0,0,0,0,0,0,0,0],"sum_hessian":[9.698943E1,9.5722275E1,1.2671562E0,1.2377096E0,9.4484566E1,4.084679E1,5.3637775E1,1.8314886E0,5.1806286E1],"tree_param":{"num_deleted":"0","num_feature":"2","num_nodes":"9","size_leaf_vector":"1"}},{"base_weights":[-7.704395E-3,1.732171E-2,-6.620743E-2,-2.5409753E-3,9.6955355E-3,-3.2031983E-2,-2.3462696E-3,1.295765E-3,-6.36616E-2,-2.7012913E-2,1.232107E-3],"categories":[],"categories_nodes":[],"categories_segments":[],"categories_sizes":[],"default_left":[0,0,0,0,0,0,0,0,0,0,0],"id":97,"left_children":[1,3,5,7,-1,-1,-1,-1,9,-1,-1],"loss_changes":[9.551275E-2,7.290342E-2,2.0448948E-1,3.657481E-2,0E0,0E0,0E0,0E0,1.2574244E-1,0E0,0E0],"parents":[2147483647,0,0,1,1,2,2,3,3,8,8],"right_children":[2,4,6,8,-1,-1,-1,-1,10,-1,-1],"split_conditions":[6E0,5E0,8E0,3E0,9.6955355E-3,-3.2031983E-2,-2.3462696E-3,1.295765E-3,4E0,-2.7012913E-2,1.232107E-3],"split_indices":[0,0,0,0,0,0,0,0,0,0,0],"split_type":[0,0,0,0,0,0,0,0,0,0,0],"sum_hessian":[6.3453064E1,4.4934956E1,1.8518108E1,3.6739315E1,8.195641E0,1.7313936E0,1.6786715E1,2.9936247E1,6.8030677E0,1.1427459E0,5.6603217E0],"tree_param":{"num_deleted":"0","num_feature":"2","num_nodes":"11","size_leaf_vector":"1"}},{"base_weights":[-6.1794408E-3,-4.7885347E-2,3.9916686E-3,1.5178759E-3,-2.7042255E-1,-3.5586298E-2,-1.2660716E-1,7.455859E-3,-2.900948E-2],"categories":[],"categories_nodes":[],"categories_segments":[],"categories_sizes":[],"default_left":[0,0,0,0,0,0,0,0,0],"id":98,"left_children":[1,3,-1,-1,5,-1,7,-1,-1],"loss_changes":[1.0377672E-1,4.0088412E-1,0E0,0E0,3.2308817E-2,0E0,1.4984997E-1,0E0,0E0],"parents":[2147483647,0,0,1,1,4,4,6,6],"right_children":[2,4,-1,-1,6,-1,8,-1,-1],"split_conditions":[8E0,3E0,3.9916686E-3,1.5178759E-3,5E0,-3.5586298E-2,6E0,7.455859E-3,-2.900948E-2],"split_indices":[0,0,0,0,0,0,0,0,0],"split_type":[0,0,0,0,0,0,0,0,0],"sum_hessian":[5.198638E1,2.7272507E1,2.4713875E1,2.1976461E1,5.2960467E0,2.3973455E0,2.898701E0,1.5434679E0,1.3552331E0],"tree_param":{"num_deleted":"0","num_feature":"2","num_nodes":"9","size_leaf_vector":"1"}},{"base_weights":[8.429213E-3,1.4324656E-3,3.0652402E-2,2.8543053E-2,-5.1587666E-3,1.2881596E-2,-3.7021954E-3,-1.225762E-3,3.809667E-2],"categories":[],"categories_nodes":[],"categories_segments":[],"categories_sizes":[],"default_left":[0,0,0,0,0,0,0,0,0],"id":99,"left_children":[1,3,-1,-1,5,7,-1,-1,-1],"loss_changes":[2.0344396E-1,1.8214045E-1,0E0,0E0,5.5262767E-2,5.746426E-1,0E0,0E0,0E0],"parents":[2147483647,0,0,1,1,4,4,5,5],"right_children":[2,4,-1,-1,6,8,-1,-1,-1],"split_conditions":[9E0,2E0,3.0652402E-2,2.8543053E-2,8E0,6E0,-3.7021954E-3,-1.225762E-3,3.809667E-2],"split_indices":[0,0,0,0,0,0,0,0,0],"split_type":[0,0,0,0,0,0,0,0,0],"sum_hessian":[9.675309E1,9.551599E1,1.2371031E0,1.2069571E0,9.430903E1,6.059625E1,3.3712784E1,5.7627167E1,2.9690807E0],"tree_param":{"num_deleted":"0","num_feature":"2","num_nodes":"9","size_leaf_vector":"1"}},{"base_weights":[-7.6278117E-3,1.6125E-2,-6.3425414E-2,-3.0377689E-3,9.312275E-3,-3.1656396E-2,-2.1608004E-3,1.1418879E-3,-6.0465556E-2,-2.6260713E-2,1.1594088E-3],"categories":[],"categories_nodes":[],"categories_segments":[],"categories_sizes":[],"default_left":[0,0,0,0,0,0,0,0,0,0,0],"id":100,"left_children":[1,3,5,7,-1,-1,-1,-1,9,-1,-1],"loss_changes":[8.62763E-2,6.803125E-2,1.9862068E-1,3.201787E-2,0E0,0E0,0E0,0E0,1.1589753E-1,0E0,0E0],"parents":[2147483647,0,0,1,1,2,2,3,3,8,8],"right_children":[2,4,6,8,-1,-1,-1,-1,10,-1,-1],"split_conditions":[6E0,5E0,8E0,3E0,9.312275E-3,-3.1656396E-2,-2.1608004E-3,1.1418879E-3,4E0,-2.6260713E-2,1.1594088E-3],"split_indices":[0,0,0,0,0,0,0,0,0,0,0],"split_type":[0,0,0,0,0,0,0,0,0,0,0],"sum_hessian":[6.332532E1,4.491584E1,1.840948E1,3.6734188E1,8.181652E0,1.6785228E0,1.6730957E1,2.9986631E1,6.7475567E0,1.0783287E0,5.669228E0],"tree_param":{"num_deleted":"0","num_feature":"2","num_nodes":"11","size_leaf_vector":"1"}},{"base_weights":[-6.295819E-3,-4.6699017E-2,3.8133517E-3,1.3729862E-3,-2.6505905E-1,-3.510641E-2,-1.2312064E-1,7.4063553E-3,-2.8656175E-2],"categories":[],"categories_nodes":[],"categories_segments":[],"categories_sizes":[],"default_left":[0,0,0,0,0,0,0,0,0],"id":101,"left_children":[1,3,-1,-1,5,-1,7,-1,-1],"loss_changes":[9.681864E-2,3.7544852E-1,0E0,0E0,3.19362E-2,0E0,1.457262E-1,0E0,0E0],"parents":[2147483647,0,0,1,1,4,4,6,6],"right_children":[2,4,-1,-1,6,-1,8,-1,-1],"split_conditions":[8E0,3E0,3.8133517E-3,1.3729862E-3,5E0,-3.510641E-2,6E0,7.4063553E-3,-2.8656175E-2],"split_indices":[0,0,0,0,0,0,0,0,0],"split_type":[0,0,0,0,0,0,0,0,0],"sum_hessian":[5.1943302E1,2.7177507E1,2.4765797E1,2.2020645E1,5.1568627E0,2.293688E0,2.8631747E0,1.5454767E0,1.317698E0],"tree_param":{"num_deleted":"0","num_feature":"2","num_nodes":"9","size_leaf_vector":"1"}},{"base_weights":[8.478307E-3,1.651256E-3,3.0239103E-2,2.818709E-2,-4.7797677E-3,1.2100289E-2,-3.4403924E-3,-1.147004E-3,3.7407536E-2],"categories":[],"categories_nodes":[],"categories_segments":[],"categories_sizes":[],"default_left":[0,0,0,0,0,0,0,0,0],"id":102,"left_children":[1,3,-1,-1,5,7,-1,-1,-1],"loss_changes":[1.9515187E-1,1.748857E-1,0E0,0E0,4.798217E-2,5.2758235E-1,0E0,0E0,0E0],"parents":[2147483647,0,0,1,1,4,4,5,5],"right_children":[2,4,-1,-1,6,8,-1,-1,-1],"split_conditions":[9E0,2E0,3.0239103E-2,2.818709E-2,8E0,6E0,-3.4403924E-3,-1.147004E-3,3.7407536E-2],"split_indices":[0,0,0,0,0,0,0,0,0],"split_type":[0,0,0,0,0,0,0,0,0],"sum_hessian":[9.650592E1,9.529794E1,1.2079775E0,1.1771241E0,9.412082E1,6.0333755E1,3.3787064E1,5.7554363E1,2.779391E0],"tree_param":{"num_deleted":"0","num_feature":"2","num_nodes":"9","size_leaf_vector":"1"}},{"base_weights":[-7.455024E-3,1.49742635E-2,-6.0465436E-2,-3.4107873E-3,8.903613E-3,-3.0826619E-2,-2.112419E-3,1.0776924E-3,-5.983073E-2,-2.5947204E-2,1.0432628E-3],"categories":[],"categories_nodes":[],"categories_segments":[],"categories_sizes":[],"default_left":[0,0,0,0,0,0,0,0,0,0,0],"id":103,"left_children":[1,3,5,7,-1,-1,-1,-1,9,-1,-1],"loss_changes":[7.722607E-2,6.281168E-2,1.8147402E-1,3.0854745E-2,0E0,0E0,0E0,0E0,1.1122432E-1,0E0,0E0],"parents":[2147483647,0,0,1,1,2,2,3,3,8,8],"right_children":[2,4,6,8,-1,-1,-1,-1,10,-1,-1],"split_conditions":[6E0,5E0,8E0,3E0,8.903613E-3,-3.0826619E-2,-2.112419E-3,1.0776924E-3,4E0,-2.5947204E-2,1.0432628E-3],"split_indices":[0,0,0,0,0,0,0,0,0,0,0],"split_type":[0,0,0,0,0,0,0,0,0,0,0],"sum_hessian":[6.31897E1,4.4906704E1,1.8282997E1,3.674028E1,8.166427E0,1.5683911E0,1.6714605E1,3.000422E1,6.7360606E0,1.0525551E0,5.6835055E0],"tree_param":{"num_deleted":"0","num_feature":"2","num_nodes":"11","size_leaf_vector":"1"}},{"base_weights":[-6.5809414E-3,-4.46329E-2,3.4928136E-3,1.3094911E-3,-2.5879434E-1,-3.473971E-2,-1.1500251E-1,7.3369965E-3,-2.7834514E-2],"categories":[],"categories_nodes":[],"categories_segments":[],"categories_sizes":[],"default_left":[0,0,0,0,0,0,0,0,0],"id":104,"left_children":[1,3,-1,-1,5,-1,7,-1,-1],"loss_changes":[8.511884E-2,3.500461E-1,0E0,0E0,3.6510795E-2,0E0,1.36823E-1,0E0,0E0],"parents":[2147483647,0,0,1,1,4,4,6,6],"right_children":[2,4,-1,-1,6,-1,8,-1,-1],"split_conditions":[8E0,3E0,3.4928136E-3,1.3094911E-3,5E0,-3.473971E-2,6E0,7.3369965E-3,-2.7834514E-2],"split_indices":[0,0,0,0,0,0,0,0,0],"split_type":[0,0,0,0,0,0,0,0,0],"sum_hessian":[5.1902695E1,2.7039734E1,2.4862963E1,2.2038145E1,5.0015883E0,2.218564E0,2.783024E0,1.5482961E0,1.2347281E0],"tree_param":{"num_deleted":"0","num_feature":"2","num_nodes":"9","size_leaf_vector":"1"}},{"base_weights":[8.515255E-3,1.8532841E-3,2.983108E-2,2.783509E-2,-4.422518E-3,-2.8635287E-3,1.449233E-2,3.1589538E-2,-9.448462E-5],"categories":[],"categories_nodes":[],"categories_segments":[],"categories_sizes":[],"default_left":[0,0,0,0,0,0,0,0,0],"id":105,"left_children":[1,3,-1,-1,5,-1,7,-1,-1],"loss_changes":[1.8723954E-1,1.6797312E-1,0E0,0E0,4.3897144E-2,0E0,2.5139722E-1,0E0,0E0],"parents":[2147483647,0,0,1,1,4,4,6,6],"right_children":[2,4,-1,-1,6,-1,8,-1,-1],"split_conditions":[9E0,2E0,2.983108E-2,2.783509E-2,3E0,-2.8635287E-3,4E0,3.1589538E-2,-9.448462E-5],"split_indices":[0,0,0,0,0,0,0,0,0],"split_type":[0,0,0,0,0,0,0,0,0],"sum_hessian":[9.627105E1,9.509144E1,1.1796163E0,1.1482689E0,9.394317E1,4.097607E1,5.29671E1,1.6323817E0,5.1334713E1],"tree_param":{"num_deleted":"0","num_feature":"2","num_nodes":"9","size_leaf_vector":"1"}},{"base_weights":[-7.2919573E-3,1.3901515E-2,-5.7665322E-2,-3.7424692E-3,8.515229E-3,-3.0004015E-2,-2.0613957E-3,1.0182086E-3,-5.917789E-2,-2.5636548E-2,9.3628187E-4],"categories":[],"categories_nodes":[],"categories_segments":[],"categories_sizes":[],"default_left":[0,0,0,0,0,0,0,0,0,0,0],"id":106,"left_children":[1,3,5,7,-1,-1,-1,-1,9,-1,-1],"loss_changes":[6.919261E-2,5.8017023E-2,1.6592336E-1,2.97381E-2,0E0,0E0,0E0,0E0,1.0679735E-1,0E0,0E0],"parents":[2147483647,0,0,1,1,2,2,3,3,8,8],"right_children":[2,4,6,8,-1,-1,-1,-1,10,-1,-1],"split_conditions":[6E0,5E0,8E0,3E0,8.515229E-3,-3.0004015E-2,-2.0613957E-3,1.0182086E-3,4E0,-2.5636548E-2,9.3628187E-4],"split_indices":[0,0,0,0,0,0,0,0,0,0,0],"split_type":[0,0,0,0,0,0,0,0,0,0,0],